digraph Tree {
node [shape=box, style="filled, rounded", color="black", fontname=helvetica] ;
edge [fontname=helvetica] ;
0 [label=<sporeprintcolor &le; 8.5<br/>entropy = 0.97<br/>samples = 2257<br/>value = [1359, 898]<br/>class = P>, fillcolor="#e5813957"] ;
1 [label=<stalkcolorbelowring &le; 14.0<br/>entropy = 0.469<br/>samples = 629<br/>value = [63, 566]<br/>class = NP>, fillcolor="#399de5e3"] ;
0 -> 1 [labeldistance=2.5, labelangle=45, headlabel="True"] ;
2 [label=<stalkcolorabovering &le; 14.0<br/>entropy = 0.326<br/>samples = 336<br/>value = [20, 316]<br/>class = NP>, fillcolor="#399de5ef"] ;
1 -> 2 ;
3 [label=<capcolor &le; 15.0<br/>entropy = 0.201<br/>samples = 224<br/>value = [7, 217]<br/>class = NP>, fillcolor="#399de5f7"] ;
2 -> 3 ;
4 [label=<gillcolor &le; 6.5<br/>entropy = 0.305<br/>samples = 110<br/>value = [6, 104]<br/>class = NP>, fillcolor="#399de5f0"] ;
3 -> 4 ;
5 [label=<habitat &le; 4.5<br/>entropy = 0.172<br/>samples = 39<br/>value = [1, 38]<br/>class = NP>, fillcolor="#399de5f8"] ;
4 -> 5 ;
6 [label=<stalkcolorbelowring &le; 7.0<br/>entropy = 0.414<br/>samples = 12<br/>value = [1, 11]<br/>class = NP>, fillcolor="#399de5e8"] ;
5 -> 6 ;
7 [label=<entropy = 0.0<br/>samples = 7<br/>value = [0, 7]<br/>class = NP>, fillcolor="#399de5ff"] ;
6 -> 7 ;
8 [label=<capsurface &le; 14.5<br/>entropy = 0.722<br/>samples = 5<br/>value = [1, 4]<br/>class = NP>, fillcolor="#399de5bf"] ;
6 -> 8 ;
9 [label=<capshape &le; 14.0<br/>entropy = 0.918<br/>samples = 3<br/>value = [1, 2]<br/>class = NP>, fillcolor="#399de57f"] ;
8 -> 9 ;
10 [label=<entropy = 0.0<br/>samples = 1<br/>value = [1, 0]<br/>class = P>, fillcolor="#e58139ff"] ;
9 -> 10 ;
11 [label=<entropy = 0.0<br/>samples = 2<br/>value = [0, 2]<br/>class = NP>, fillcolor="#399de5ff"] ;
9 -> 11 ;
12 [label=<entropy = 0.0<br/>samples = 2<br/>value = [0, 2]<br/>class = NP>, fillcolor="#399de5ff"] ;
8 -> 12 ;
13 [label=<entropy = 0.0<br/>samples = 27<br/>value = [0, 27]<br/>class = NP>, fillcolor="#399de5ff"] ;
5 -> 13 ;
14 [label=<habitat &le; 4.5<br/>entropy = 0.367<br/>samples = 71<br/>value = [5, 66]<br/>class = NP>, fillcolor="#399de5ec"] ;
4 -> 14 ;
15 [label=<entropy = 0.0<br/>samples = 22<br/>value = [0, 22]<br/>class = NP>, fillcolor="#399de5ff"] ;
14 -> 15 ;
16 [label=<stalkcolorabovering &le; 7.0<br/>entropy = 0.475<br/>samples = 49<br/>value = [5, 44]<br/>class = NP>, fillcolor="#399de5e2"] ;
14 -> 16 ;
17 [label=<population &le; 22.5<br/>entropy = 0.235<br/>samples = 26<br/>value = [1, 25]<br/>class = NP>, fillcolor="#399de5f5"] ;
16 -> 17 ;
18 [label=<entropy = 0.0<br/>samples = 14<br/>value = [0, 14]<br/>class = NP>, fillcolor="#399de5ff"] ;
17 -> 18 ;
19 [label=<stalkcolorbelowring &le; 7.0<br/>entropy = 0.414<br/>samples = 12<br/>value = [1, 11]<br/>class = NP>, fillcolor="#399de5e8"] ;
17 -> 19 ;
20 [label=<gillcolor &le; 11.0<br/>entropy = 0.722<br/>samples = 5<br/>value = [1, 4]<br/>class = NP>, fillcolor="#399de5bf"] ;
19 -> 20 ;
21 [label=<habitat &le; 10.5<br/>entropy = 0.918<br/>samples = 3<br/>value = [1, 2]<br/>class = NP>, fillcolor="#399de57f"] ;
20 -> 21 ;
22 [label=<entropy = 0.0<br/>samples = 1<br/>value = [0, 1]<br/>class = NP>, fillcolor="#399de5ff"] ;
21 -> 22 ;
23 [label=<capshape &le; 14.0<br/>entropy = 1.0<br/>samples = 2<br/>value = [1, 1]<br/>class = P>, fillcolor="#e5813900"] ;
21 -> 23 ;
24 [label=<entropy = 0.0<br/>samples = 1<br/>value = [0, 1]<br/>class = NP>, fillcolor="#399de5ff"] ;
23 -> 24 ;
25 [label=<entropy = 0.0<br/>samples = 1<br/>value = [1, 0]<br/>class = P>, fillcolor="#e58139ff"] ;
23 -> 25 ;
26 [label=<entropy = 0.0<br/>samples = 2<br/>value = [0, 2]<br/>class = NP>, fillcolor="#399de5ff"] ;
20 -> 26 ;
27 [label=<entropy = 0.0<br/>samples = 7<br/>value = [0, 7]<br/>class = NP>, fillcolor="#399de5ff"] ;
19 -> 27 ;
28 [label=<population &le; 22.5<br/>entropy = 0.667<br/>samples = 23<br/>value = [4, 19]<br/>class = NP>, fillcolor="#399de5c9"] ;
16 -> 28 ;
29 [label=<capshape &le; 14.0<br/>entropy = 0.918<br/>samples = 12<br/>value = [4, 8]<br/>class = NP>, fillcolor="#399de57f"] ;
28 -> 29 ;
30 [label=<capsurface &le; 14.5<br/>entropy = 1.0<br/>samples = 4<br/>value = [2, 2]<br/>class = P>, fillcolor="#e5813900"] ;
29 -> 30 ;
31 [label=<stalkcolorbelowring &le; 7.0<br/>entropy = 0.918<br/>samples = 3<br/>value = [2, 1]<br/>class = P>, fillcolor="#e581397f"] ;
30 -> 31 ;
32 [label=<entropy = 0.0<br/>samples = 1<br/>value = [1, 0]<br/>class = P>, fillcolor="#e58139ff"] ;
31 -> 32 ;
33 [label=<habitat &le; 10.5<br/>entropy = 1.0<br/>samples = 2<br/>value = [1, 1]<br/>class = P>, fillcolor="#e5813900"] ;
31 -> 33 ;
34 [label=<entropy = 0.0<br/>samples = 1<br/>value = [0, 1]<br/>class = NP>, fillcolor="#399de5ff"] ;
33 -> 34 ;
35 [label=<entropy = 0.0<br/>samples = 1<br/>value = [1, 0]<br/>class = P>, fillcolor="#e58139ff"] ;
33 -> 35 ;
36 [label=<entropy = 0.0<br/>samples = 1<br/>value = [0, 1]<br/>class = NP>, fillcolor="#399de5ff"] ;
30 -> 36 ;
37 [label=<stalkcolorbelowring &le; 7.0<br/>entropy = 0.811<br/>samples = 8<br/>value = [2, 6]<br/>class = NP>, fillcolor="#399de5aa"] ;
29 -> 37 ;
38 [label=<entropy = 0.0<br/>samples = 3<br/>value = [0, 3]<br/>class = NP>, fillcolor="#399de5ff"] ;
37 -> 38 ;
39 [label=<capsurface &le; 14.5<br/>entropy = 0.971<br/>samples = 5<br/>value = [2, 3]<br/>class = NP>, fillcolor="#399de555"] ;
37 -> 39 ;
40 [label=<entropy = 0.0<br/>samples = 2<br/>value = [0, 2]<br/>class = NP>, fillcolor="#399de5ff"] ;
39 -> 40 ;
41 [label=<gillcolor &le; 11.0<br/>entropy = 0.918<br/>samples = 3<br/>value = [2, 1]<br/>class = P>, fillcolor="#e581397f"] ;
39 -> 41 ;
42 [label=<habitat &le; 10.5<br/>entropy = 1.0<br/>samples = 2<br/>value = [1, 1]<br/>class = P>, fillcolor="#e5813900"] ;
41 -> 42 ;
43 [label=<entropy = 0.0<br/>samples = 1<br/>value = [0, 1]<br/>class = NP>, fillcolor="#399de5ff"] ;
42 -> 43 ;
44 [label=<entropy = 0.0<br/>samples = 1<br/>value = [1, 0]<br/>class = P>, fillcolor="#e58139ff"] ;
42 -> 44 ;
45 [label=<entropy = 0.0<br/>samples = 1<br/>value = [1, 0]<br/>class = P>, fillcolor="#e58139ff"] ;
41 -> 45 ;
46 [label=<entropy = 0.0<br/>samples = 11<br/>value = [0, 11]<br/>class = NP>, fillcolor="#399de5ff"] ;
28 -> 46 ;
47 [label=<habitat &le; 10.5<br/>entropy = 0.073<br/>samples = 114<br/>value = [1, 113]<br/>class = NP>, fillcolor="#399de5fd"] ;
3 -> 47 ;
48 [label=<entropy = 0.0<br/>samples = 73<br/>value = [0, 73]<br/>class = NP>, fillcolor="#399de5ff"] ;
47 -> 48 ;
49 [label=<gillcolor &le; 11.0<br/>entropy = 0.165<br/>samples = 41<br/>value = [1, 40]<br/>class = NP>, fillcolor="#399de5f9"] ;
47 -> 49 ;
50 [label=<entropy = 0.0<br/>samples = 25<br/>value = [0, 25]<br/>class = NP>, fillcolor="#399de5ff"] ;
49 -> 50 ;
51 [label=<population &le; 22.5<br/>entropy = 0.337<br/>samples = 16<br/>value = [1, 15]<br/>class = NP>, fillcolor="#399de5ee"] ;
49 -> 51 ;
52 [label=<stalkcolorabovering &le; 7.0<br/>entropy = 0.65<br/>samples = 6<br/>value = [1, 5]<br/>class = NP>, fillcolor="#399de5cc"] ;
51 -> 52 ;
53 [label=<capshape &le; 14.0<br/>entropy = 0.918<br/>samples = 3<br/>value = [1, 2]<br/>class = NP>, fillcolor="#399de57f"] ;
52 -> 53 ;
54 [label=<entropy = 0.0<br/>samples = 1<br/>value = [0, 1]<br/>class = NP>, fillcolor="#399de5ff"] ;
53 -> 54 ;
55 [label=<stalkcolorbelowring &le; 7.0<br/>entropy = 1.0<br/>samples = 2<br/>value = [1, 1]<br/>class = P>, fillcolor="#e5813900"] ;
53 -> 55 ;
56 [label=<entropy = 0.0<br/>samples = 1<br/>value = [0, 1]<br/>class = NP>, fillcolor="#399de5ff"] ;
55 -> 56 ;
57 [label=<entropy = 0.0<br/>samples = 1<br/>value = [1, 0]<br/>class = P>, fillcolor="#e58139ff"] ;
55 -> 57 ;
58 [label=<entropy = 0.0<br/>samples = 3<br/>value = [0, 3]<br/>class = NP>, fillcolor="#399de5ff"] ;
52 -> 58 ;
59 [label=<entropy = 0.0<br/>samples = 10<br/>value = [0, 10]<br/>class = NP>, fillcolor="#399de5ff"] ;
51 -> 59 ;
60 [label=<capcolor &le; 15.0<br/>entropy = 0.518<br/>samples = 112<br/>value = [13, 99]<br/>class = NP>, fillcolor="#399de5de"] ;
2 -> 60 ;
61 [label=<capshape &le; 14.0<br/>entropy = 0.705<br/>samples = 47<br/>value = [9, 38]<br/>class = NP>, fillcolor="#399de5c3"] ;
60 -> 61 ;
62 [label=<population &le; 22.5<br/>entropy = 0.391<br/>samples = 26<br/>value = [2, 24]<br/>class = NP>, fillcolor="#399de5ea"] ;
61 -> 62 ;
63 [label=<entropy = 0.0<br/>samples = 14<br/>value = [0, 14]<br/>class = NP>, fillcolor="#399de5ff"] ;
62 -> 63 ;
64 [label=<gillcolor &le; 6.5<br/>entropy = 0.65<br/>samples = 12<br/>value = [2, 10]<br/>class = NP>, fillcolor="#399de5cc"] ;
62 -> 64 ;
65 [label=<entropy = 0.0<br/>samples = 5<br/>value = [0, 5]<br/>class = NP>, fillcolor="#399de5ff"] ;
64 -> 65 ;
66 [label=<capsurface &le; 14.5<br/>entropy = 0.863<br/>samples = 7<br/>value = [2, 5]<br/>class = NP>, fillcolor="#399de599"] ;
64 -> 66 ;
67 [label=<stalkcolorbelowring &le; 7.0<br/>entropy = 1.0<br/>samples = 4<br/>value = [2, 2]<br/>class = P>, fillcolor="#e5813900"] ;
66 -> 67 ;
68 [label=<entropy = 0.0<br/>samples = 2<br/>value = [2, 0]<br/>class = P>, fillcolor="#e58139ff"] ;
67 -> 68 ;
69 [label=<entropy = 0.0<br/>samples = 2<br/>value = [0, 2]<br/>class = NP>, fillcolor="#399de5ff"] ;
67 -> 69 ;
70 [label=<entropy = 0.0<br/>samples = 3<br/>value = [0, 3]<br/>class = NP>, fillcolor="#399de5ff"] ;
66 -> 70 ;
71 [label=<gillcolor &le; 11.0<br/>entropy = 0.918<br/>samples = 21<br/>value = [7, 14]<br/>class = NP>, fillcolor="#399de57f"] ;
61 -> 71 ;
72 [label=<habitat &le; 10.5<br/>entropy = 0.971<br/>samples = 15<br/>value = [6, 9]<br/>class = NP>, fillcolor="#399de555"] ;
71 -> 72 ;
73 [label=<capsurface &le; 14.5<br/>entropy = 0.918<br/>samples = 9<br/>value = [3, 6]<br/>class = NP>, fillcolor="#399de57f"] ;
72 -> 73 ;
74 [label=<gillcolor &le; 6.5<br/>entropy = 0.918<br/>samples = 3<br/>value = [2, 1]<br/>class = P>, fillcolor="#e581397f"] ;
73 -> 74 ;
75 [label=<entropy = 0.0<br/>samples = 2<br/>value = [2, 0]<br/>class = P>, fillcolor="#e58139ff"] ;
74 -> 75 ;
76 [label=<entropy = 0.0<br/>samples = 1<br/>value = [0, 1]<br/>class = NP>, fillcolor="#399de5ff"] ;
74 -> 76 ;
77 [label=<habitat &le; 4.5<br/>entropy = 0.65<br/>samples = 6<br/>value = [1, 5]<br/>class = NP>, fillcolor="#399de5cc"] ;
73 -> 77 ;
78 [label=<population &le; 22.5<br/>entropy = 0.918<br/>samples = 3<br/>value = [1, 2]<br/>class = NP>, fillcolor="#399de57f"] ;
77 -> 78 ;
79 [label=<entropy = 0.0<br/>samples = 1<br/>value = [1, 0]<br/>class = P>, fillcolor="#e58139ff"] ;
78 -> 79 ;
80 [label=<entropy = 0.0<br/>samples = 2<br/>value = [0, 2]<br/>class = NP>, fillcolor="#399de5ff"] ;
78 -> 80 ;
81 [label=<entropy = 0.0<br/>samples = 3<br/>value = [0, 3]<br/>class = NP>, fillcolor="#399de5ff"] ;
77 -> 81 ;
82 [label=<capsurface &le; 14.5<br/>entropy = 1.0<br/>samples = 6<br/>value = [3, 3]<br/>class = P>, fillcolor="#e5813900"] ;
72 -> 82 ;
83 [label=<entropy = 0.0<br/>samples = 2<br/>value = [0, 2]<br/>class = NP>, fillcolor="#399de5ff"] ;
82 -> 83 ;
84 [label=<stalkcolorbelowring &le; 7.0<br/>entropy = 0.811<br/>samples = 4<br/>value = [3, 1]<br/>class = P>, fillcolor="#e58139aa"] ;
82 -> 84 ;
85 [label=<entropy = 0.0<br/>samples = 2<br/>value = [2, 0]<br/>class = P>, fillcolor="#e58139ff"] ;
84 -> 85 ;
86 [label=<population &le; 22.5<br/>entropy = 1.0<br/>samples = 2<br/>value = [1, 1]<br/>class = P>, fillcolor="#e5813900"] ;
84 -> 86 ;
87 [label=<entropy = 0.0<br/>samples = 1<br/>value = [0, 1]<br/>class = NP>, fillcolor="#399de5ff"] ;
86 -> 87 ;
88 [label=<entropy = 0.0<br/>samples = 1<br/>value = [1, 0]<br/>class = P>, fillcolor="#e58139ff"] ;
86 -> 88 ;
89 [label=<stalkcolorbelowring &le; 7.0<br/>entropy = 0.65<br/>samples = 6<br/>value = [1, 5]<br/>class = NP>, fillcolor="#399de5cc"] ;
71 -> 89 ;
90 [label=<entropy = 0.0<br/>samples = 4<br/>value = [0, 4]<br/>class = NP>, fillcolor="#399de5ff"] ;
89 -> 90 ;
91 [label=<capsurface &le; 14.5<br/>entropy = 1.0<br/>samples = 2<br/>value = [1, 1]<br/>class = P>, fillcolor="#e5813900"] ;
89 -> 91 ;
92 [label=<entropy = 0.0<br/>samples = 1<br/>value = [1, 0]<br/>class = P>, fillcolor="#e58139ff"] ;
91 -> 92 ;
93 [label=<entropy = 0.0<br/>samples = 1<br/>value = [0, 1]<br/>class = NP>, fillcolor="#399de5ff"] ;
91 -> 93 ;
94 [label=<capsurface &le; 14.5<br/>entropy = 0.334<br/>samples = 65<br/>value = [4, 61]<br/>class = NP>, fillcolor="#399de5ee"] ;
60 -> 94 ;
95 [label=<entropy = 0.0<br/>samples = 34<br/>value = [0, 34]<br/>class = NP>, fillcolor="#399de5ff"] ;
94 -> 95 ;
96 [label=<population &le; 22.5<br/>entropy = 0.555<br/>samples = 31<br/>value = [4, 27]<br/>class = NP>, fillcolor="#399de5d9"] ;
94 -> 96 ;
97 [label=<stalkcolorbelowring &le; 7.0<br/>entropy = 0.764<br/>samples = 18<br/>value = [4, 14]<br/>class = NP>, fillcolor="#399de5b6"] ;
96 -> 97 ;
98 [label=<gillcolor &le; 11.0<br/>entropy = 0.954<br/>samples = 8<br/>value = [3, 5]<br/>class = NP>, fillcolor="#399de566"] ;
97 -> 98 ;
99 [label=<habitat &le; 9.0<br/>entropy = 0.863<br/>samples = 7<br/>value = [2, 5]<br/>class = NP>, fillcolor="#399de599"] ;
98 -> 99 ;
100 [label=<capshape &le; 14.0<br/>entropy = 0.811<br/>samples = 4<br/>value = [1, 3]<br/>class = NP>, fillcolor="#399de5aa"] ;
99 -> 100 ;
101 [label=<gillcolor &le; 6.5<br/>entropy = 1.0<br/>samples = 2<br/>value = [1, 1]<br/>class = P>, fillcolor="#e5813900"] ;
100 -> 101 ;
102 [label=<entropy = 0.0<br/>samples = 1<br/>value = [1, 0]<br/>class = P>, fillcolor="#e58139ff"] ;
101 -> 102 ;
103 [label=<entropy = 0.0<br/>samples = 1<br/>value = [0, 1]<br/>class = NP>, fillcolor="#399de5ff"] ;
101 -> 103 ;
104 [label=<entropy = 0.0<br/>samples = 2<br/>value = [0, 2]<br/>class = NP>, fillcolor="#399de5ff"] ;
100 -> 104 ;
105 [label=<capshape &le; 14.0<br/>entropy = 0.918<br/>samples = 3<br/>value = [1, 2]<br/>class = NP>, fillcolor="#399de57f"] ;
99 -> 105 ;
106 [label=<entropy = 0.0<br/>samples = 1<br/>value = [0, 1]<br/>class = NP>, fillcolor="#399de5ff"] ;
105 -> 106 ;
107 [label=<gillcolor &le; 6.5<br/>entropy = 1.0<br/>samples = 2<br/>value = [1, 1]<br/>class = P>, fillcolor="#e5813900"] ;
105 -> 107 ;
108 [label=<entropy = 0.0<br/>samples = 1<br/>value = [0, 1]<br/>class = NP>, fillcolor="#399de5ff"] ;
107 -> 108 ;
109 [label=<entropy = 0.0<br/>samples = 1<br/>value = [1, 0]<br/>class = P>, fillcolor="#e58139ff"] ;
107 -> 109 ;
110 [label=<entropy = 0.0<br/>samples = 1<br/>value = [1, 0]<br/>class = P>, fillcolor="#e58139ff"] ;
98 -> 110 ;
111 [label=<capshape &le; 14.0<br/>entropy = 0.469<br/>samples = 10<br/>value = [1, 9]<br/>class = NP>, fillcolor="#399de5e3"] ;
97 -> 111 ;
112 [label=<habitat &le; 10.5<br/>entropy = 0.811<br/>samples = 4<br/>value = [1, 3]<br/>class = NP>, fillcolor="#399de5aa"] ;
111 -> 112 ;
113 [label=<entropy = 0.0<br/>samples = 1<br/>value = [0, 1]<br/>class = NP>, fillcolor="#399de5ff"] ;
112 -> 113 ;
114 [label=<gillcolor &le; 6.5<br/>entropy = 0.918<br/>samples = 3<br/>value = [1, 2]<br/>class = NP>, fillcolor="#399de57f"] ;
112 -> 114 ;
115 [label=<entropy = 0.0<br/>samples = 1<br/>value = [0, 1]<br/>class = NP>, fillcolor="#399de5ff"] ;
114 -> 115 ;
116 [label=<gillcolor &le; 11.0<br/>entropy = 1.0<br/>samples = 2<br/>value = [1, 1]<br/>class = P>, fillcolor="#e5813900"] ;
114 -> 116 ;
117 [label=<entropy = 0.0<br/>samples = 1<br/>value = [1, 0]<br/>class = P>, fillcolor="#e58139ff"] ;
116 -> 117 ;
118 [label=<entropy = 0.0<br/>samples = 1<br/>value = [0, 1]<br/>class = NP>, fillcolor="#399de5ff"] ;
116 -> 118 ;
119 [label=<entropy = 0.0<br/>samples = 6<br/>value = [0, 6]<br/>class = NP>, fillcolor="#399de5ff"] ;
111 -> 119 ;
120 [label=<entropy = 0.0<br/>samples = 13<br/>value = [0, 13]<br/>class = NP>, fillcolor="#399de5ff"] ;
96 -> 120 ;
121 [label=<habitat &le; 10.5<br/>entropy = 0.602<br/>samples = 293<br/>value = [43, 250]<br/>class = NP>, fillcolor="#399de5d3"] ;
1 -> 121 ;
122 [label=<stalksurfaceabovering &le; 7.5<br/>entropy = 0.519<br/>samples = 172<br/>value = [20, 152]<br/>class = NP>, fillcolor="#399de5dd"] ;
121 -> 122 ;
123 [label=<population &le; 19.5<br/>entropy = 0.222<br/>samples = 28<br/>value = [1, 27]<br/>class = NP>, fillcolor="#399de5f6"] ;
122 -> 123 ;
124 [label=<entropy = 0.0<br/>samples = 17<br/>value = [0, 17]<br/>class = NP>, fillcolor="#399de5ff"] ;
123 -> 124 ;
125 [label=<capcolor &le; 3.5<br/>entropy = 0.439<br/>samples = 11<br/>value = [1, 10]<br/>class = NP>, fillcolor="#399de5e6"] ;
123 -> 125 ;
126 [label=<gillcolor &le; 18.5<br/>entropy = 0.811<br/>samples = 4<br/>value = [1, 3]<br/>class = NP>, fillcolor="#399de5aa"] ;
125 -> 126 ;
127 [label=<entropy = 0.0<br/>samples = 3<br/>value = [0, 3]<br/>class = NP>, fillcolor="#399de5ff"] ;
126 -> 127 ;
128 [label=<entropy = 0.0<br/>samples = 1<br/>value = [1, 0]<br/>class = P>, fillcolor="#e58139ff"] ;
126 -> 128 ;
129 [label=<entropy = 0.0<br/>samples = 7<br/>value = [0, 7]<br/>class = NP>, fillcolor="#399de5ff"] ;
125 -> 129 ;
130 [label=<stalksurfacebelowring &le; 7.5<br/>entropy = 0.563<br/>samples = 144<br/>value = [19, 125]<br/>class = NP>, fillcolor="#399de5d8"] ;
122 -> 130 ;
131 [label=<gillcolor &le; 11.0<br/>entropy = 0.863<br/>samples = 14<br/>value = [4, 10]<br/>class = NP>, fillcolor="#399de599"] ;
130 -> 131 ;
132 [label=<entropy = 0.0<br/>samples = 3<br/>value = [0, 3]<br/>class = NP>, fillcolor="#399de5ff"] ;
131 -> 132 ;
133 [label=<population &le; 19.5<br/>entropy = 0.946<br/>samples = 11<br/>value = [4, 7]<br/>class = NP>, fillcolor="#399de56d"] ;
131 -> 133 ;
134 [label=<capcolor &le; 14.0<br/>entropy = 1.0<br/>samples = 6<br/>value = [3, 3]<br/>class = P>, fillcolor="#e5813900"] ;
133 -> 134 ;
135 [label=<capcolor &le; 3.5<br/>entropy = 0.971<br/>samples = 5<br/>value = [3, 2]<br/>class = P>, fillcolor="#e5813955"] ;
134 -> 135 ;
136 [label=<gillcolor &le; 18.5<br/>entropy = 1.0<br/>samples = 2<br/>value = [1, 1]<br/>class = P>, fillcolor="#e5813900"] ;
135 -> 136 ;
137 [label=<entropy = 0.0<br/>samples = 1<br/>value = [1, 0]<br/>class = P>, fillcolor="#e58139ff"] ;
136 -> 137 ;
138 [label=<entropy = 0.0<br/>samples = 1<br/>value = [0, 1]<br/>class = NP>, fillcolor="#399de5ff"] ;
136 -> 138 ;
139 [label=<gillcolor &le; 18.5<br/>entropy = 0.918<br/>samples = 3<br/>value = [2, 1]<br/>class = P>, fillcolor="#e581397f"] ;
135 -> 139 ;
140 [label=<entropy = 0.0<br/>samples = 1<br/>value = [0, 1]<br/>class = NP>, fillcolor="#399de5ff"] ;
139 -> 140 ;
141 [label=<entropy = 0.0<br/>samples = 2<br/>value = [2, 0]<br/>class = P>, fillcolor="#e58139ff"] ;
139 -> 141 ;
142 [label=<entropy = 0.0<br/>samples = 1<br/>value = [0, 1]<br/>class = NP>, fillcolor="#399de5ff"] ;
134 -> 142 ;
143 [label=<capcolor &le; 14.0<br/>entropy = 0.722<br/>samples = 5<br/>value = [1, 4]<br/>class = NP>, fillcolor="#399de5bf"] ;
133 -> 143 ;
144 [label=<entropy = 0.0<br/>samples = 3<br/>value = [0, 3]<br/>class = NP>, fillcolor="#399de5ff"] ;
143 -> 144 ;
145 [label=<capshape &le; 14.0<br/>entropy = 1.0<br/>samples = 2<br/>value = [1, 1]<br/>class = P>, fillcolor="#e5813900"] ;
143 -> 145 ;
146 [label=<entropy = 0.0<br/>samples = 1<br/>value = [1, 0]<br/>class = P>, fillcolor="#e58139ff"] ;
145 -> 146 ;
147 [label=<entropy = 0.0<br/>samples = 1<br/>value = [0, 1]<br/>class = NP>, fillcolor="#399de5ff"] ;
145 -> 147 ;
148 [label=<gillcolor &le; 18.5<br/>entropy = 0.516<br/>samples = 130<br/>value = [15, 115]<br/>class = NP>, fillcolor="#399de5de"] ;
130 -> 148 ;
149 [label=<stalkcolorabovering &le; 14.0<br/>entropy = 0.532<br/>samples = 124<br/>value = [15, 109]<br/>class = NP>, fillcolor="#399de5dc"] ;
148 -> 149 ;
150 [label=<capcolor &le; 15.0<br/>entropy = 0.461<br/>samples = 82<br/>value = [8, 74]<br/>class = NP>, fillcolor="#399de5e3"] ;
149 -> 150 ;
151 [label=<gillcolor &le; 11.0<br/>entropy = 0.562<br/>samples = 38<br/>value = [5, 33]<br/>class = NP>, fillcolor="#399de5d8"] ;
150 -> 151 ;
152 [label=<stalkcolorabovering &le; 7.0<br/>entropy = 0.491<br/>samples = 28<br/>value = [3, 25]<br/>class = NP>, fillcolor="#399de5e0"] ;
151 -> 152 ;
153 [label=<population &le; 22.5<br/>entropy = 0.353<br/>samples = 15<br/>value = [1, 14]<br/>class = NP>, fillcolor="#399de5ed"] ;
152 -> 153 ;
154 [label=<gillcolor &le; 6.5<br/>entropy = 0.722<br/>samples = 5<br/>value = [1, 4]<br/>class = NP>, fillcolor="#399de5bf"] ;
153 -> 154 ;
155 [label=<entropy = 0.0<br/>samples = 2<br/>value = [0, 2]<br/>class = NP>, fillcolor="#399de5ff"] ;
154 -> 155 ;
156 [label=<habitat &le; 4.5<br/>entropy = 0.918<br/>samples = 3<br/>value = [1, 2]<br/>class = NP>, fillcolor="#399de57f"] ;
154 -> 156 ;
157 [label=<entropy = 0.0<br/>samples = 1<br/>value = [0, 1]<br/>class = NP>, fillcolor="#399de5ff"] ;
156 -> 157 ;
158 [label=<capshape &le; 14.0<br/>entropy = 1.0<br/>samples = 2<br/>value = [1, 1]<br/>class = P>, fillcolor="#e5813900"] ;
156 -> 158 ;
159 [label=<entropy = 0.0<br/>samples = 1<br/>value = [0, 1]<br/>class = NP>, fillcolor="#399de5ff"] ;
158 -> 159 ;
160 [label=<entropy = 0.0<br/>samples = 1<br/>value = [1, 0]<br/>class = P>, fillcolor="#e58139ff"] ;
158 -> 160 ;
161 [label=<entropy = 0.0<br/>samples = 10<br/>value = [0, 10]<br/>class = NP>, fillcolor="#399de5ff"] ;
153 -> 161 ;
162 [label=<population &le; 22.5<br/>entropy = 0.619<br/>samples = 13<br/>value = [2, 11]<br/>class = NP>, fillcolor="#399de5d1"] ;
152 -> 162 ;
163 [label=<entropy = 0.0<br/>samples = 7<br/>value = [0, 7]<br/>class = NP>, fillcolor="#399de5ff"] ;
162 -> 163 ;
164 [label=<capsurface &le; 14.5<br/>entropy = 0.918<br/>samples = 6<br/>value = [2, 4]<br/>class = NP>, fillcolor="#399de57f"] ;
162 -> 164 ;
165 [label=<gillcolor &le; 6.5<br/>entropy = 1.0<br/>samples = 2<br/>value = [1, 1]<br/>class = P>, fillcolor="#e5813900"] ;
164 -> 165 ;
166 [label=<entropy = 0.0<br/>samples = 1<br/>value = [1, 0]<br/>class = P>, fillcolor="#e58139ff"] ;
165 -> 166 ;
167 [label=<entropy = 0.0<br/>samples = 1<br/>value = [0, 1]<br/>class = NP>, fillcolor="#399de5ff"] ;
165 -> 167 ;
168 [label=<gillcolor &le; 6.5<br/>entropy = 0.811<br/>samples = 4<br/>value = [1, 3]<br/>class = NP>, fillcolor="#399de5aa"] ;
164 -> 168 ;
169 [label=<entropy = 0.0<br/>samples = 2<br/>value = [0, 2]<br/>class = NP>, fillcolor="#399de5ff"] ;
168 -> 169 ;
170 [label=<capshape &le; 14.0<br/>entropy = 1.0<br/>samples = 2<br/>value = [1, 1]<br/>class = P>, fillcolor="#e5813900"] ;
168 -> 170 ;
171 [label=<entropy = 0.0<br/>samples = 1<br/>value = [0, 1]<br/>class = NP>, fillcolor="#399de5ff"] ;
170 -> 171 ;
172 [label=<entropy = 0.0<br/>samples = 1<br/>value = [1, 0]<br/>class = P>, fillcolor="#e58139ff"] ;
170 -> 172 ;
173 [label=<stalkcolorabovering &le; 7.0<br/>entropy = 0.722<br/>samples = 10<br/>value = [2, 8]<br/>class = NP>, fillcolor="#399de5bf"] ;
151 -> 173 ;
174 [label=<capshape &le; 14.0<br/>entropy = 0.811<br/>samples = 8<br/>value = [2, 6]<br/>class = NP>, fillcolor="#399de5aa"] ;
173 -> 174 ;
175 [label=<population &le; 22.5<br/>entropy = 0.918<br/>samples = 3<br/>value = [1, 2]<br/>class = NP>, fillcolor="#399de57f"] ;
174 -> 175 ;
176 [label=<entropy = 0.0<br/>samples = 1<br/>value = [1, 0]<br/>class = P>, fillcolor="#e58139ff"] ;
175 -> 176 ;
177 [label=<entropy = 0.0<br/>samples = 2<br/>value = [0, 2]<br/>class = NP>, fillcolor="#399de5ff"] ;
175 -> 177 ;
178 [label=<population &le; 22.5<br/>entropy = 0.722<br/>samples = 5<br/>value = [1, 4]<br/>class = NP>, fillcolor="#399de5bf"] ;
174 -> 178 ;
179 [label=<entropy = 0.0<br/>samples = 3<br/>value = [0, 3]<br/>class = NP>, fillcolor="#399de5ff"] ;
178 -> 179 ;
180 [label=<habitat &le; 4.5<br/>entropy = 1.0<br/>samples = 2<br/>value = [1, 1]<br/>class = P>, fillcolor="#e5813900"] ;
178 -> 180 ;
181 [label=<entropy = 0.0<br/>samples = 1<br/>value = [1, 0]<br/>class = P>, fillcolor="#e58139ff"] ;
180 -> 181 ;
182 [label=<entropy = 0.0<br/>samples = 1<br/>value = [0, 1]<br/>class = NP>, fillcolor="#399de5ff"] ;
180 -> 182 ;
183 [label=<entropy = 0.0<br/>samples = 2<br/>value = [0, 2]<br/>class = NP>, fillcolor="#399de5ff"] ;
173 -> 183 ;
184 [label=<capshape &le; 14.0<br/>entropy = 0.359<br/>samples = 44<br/>value = [3, 41]<br/>class = NP>, fillcolor="#399de5ec"] ;
150 -> 184 ;
185 [label=<population &le; 22.5<br/>entropy = 0.454<br/>samples = 21<br/>value = [2, 19]<br/>class = NP>, fillcolor="#399de5e4"] ;
184 -> 185 ;
186 [label=<entropy = 0.0<br/>samples = 11<br/>value = [0, 11]<br/>class = NP>, fillcolor="#399de5ff"] ;
185 -> 186 ;
187 [label=<gillcolor &le; 6.5<br/>entropy = 0.722<br/>samples = 10<br/>value = [2, 8]<br/>class = NP>, fillcolor="#399de5bf"] ;
185 -> 187 ;
188 [label=<entropy = 0.0<br/>samples = 3<br/>value = [0, 3]<br/>class = NP>, fillcolor="#399de5ff"] ;
187 -> 188 ;
189 [label=<capsurface &le; 14.5<br/>entropy = 0.863<br/>samples = 7<br/>value = [2, 5]<br/>class = NP>, fillcolor="#399de599"] ;
187 -> 189 ;
190 [label=<habitat &le; 4.5<br/>entropy = 0.811<br/>samples = 4<br/>value = [1, 3]<br/>class = NP>, fillcolor="#399de5aa"] ;
189 -> 190 ;
191 [label=<entropy = 0.0<br/>samples = 2<br/>value = [0, 2]<br/>class = NP>, fillcolor="#399de5ff"] ;
190 -> 191 ;
192 [label=<stalkcolorabovering &le; 7.0<br/>entropy = 1.0<br/>samples = 2<br/>value = [1, 1]<br/>class = P>, fillcolor="#e5813900"] ;
190 -> 192 ;
193 [label=<entropy = 0.0<br/>samples = 1<br/>value = [1, 0]<br/>class = P>, fillcolor="#e58139ff"] ;
192 -> 193 ;
194 [label=<entropy = 0.0<br/>samples = 1<br/>value = [0, 1]<br/>class = NP>, fillcolor="#399de5ff"] ;
192 -> 194 ;
195 [label=<gillcolor &le; 11.0<br/>entropy = 0.918<br/>samples = 3<br/>value = [1, 2]<br/>class = NP>, fillcolor="#399de57f"] ;
189 -> 195 ;
196 [label=<entropy = 0.0<br/>samples = 1<br/>value = [0, 1]<br/>class = NP>, fillcolor="#399de5ff"] ;
195 -> 196 ;
197 [label=<stalkcolorabovering &le; 7.0<br/>entropy = 1.0<br/>samples = 2<br/>value = [1, 1]<br/>class = P>, fillcolor="#e5813900"] ;
195 -> 197 ;
198 [label=<entropy = 0.0<br/>samples = 1<br/>value = [0, 1]<br/>class = NP>, fillcolor="#399de5ff"] ;
197 -> 198 ;
199 [label=<entropy = 0.0<br/>samples = 1<br/>value = [1, 0]<br/>class = P>, fillcolor="#e58139ff"] ;
197 -> 199 ;
200 [label=<gillcolor &le; 6.5<br/>entropy = 0.258<br/>samples = 23<br/>value = [1, 22]<br/>class = NP>, fillcolor="#399de5f3"] ;
184 -> 200 ;
201 [label=<stalkcolorabovering &le; 7.0<br/>entropy = 0.722<br/>samples = 5<br/>value = [1, 4]<br/>class = NP>, fillcolor="#399de5bf"] ;
200 -> 201 ;
202 [label=<entropy = 0.0<br/>samples = 3<br/>value = [0, 3]<br/>class = NP>, fillcolor="#399de5ff"] ;
201 -> 202 ;
203 [label=<population &le; 22.5<br/>entropy = 1.0<br/>samples = 2<br/>value = [1, 1]<br/>class = P>, fillcolor="#e5813900"] ;
201 -> 203 ;
204 [label=<entropy = 0.0<br/>samples = 1<br/>value = [1, 0]<br/>class = P>, fillcolor="#e58139ff"] ;
203 -> 204 ;
205 [label=<entropy = 0.0<br/>samples = 1<br/>value = [0, 1]<br/>class = NP>, fillcolor="#399de5ff"] ;
203 -> 205 ;
206 [label=<entropy = 0.0<br/>samples = 18<br/>value = [0, 18]<br/>class = NP>, fillcolor="#399de5ff"] ;
200 -> 206 ;
207 [label=<capshape &le; 14.0<br/>entropy = 0.65<br/>samples = 42<br/>value = [7, 35]<br/>class = NP>, fillcolor="#399de5cc"] ;
149 -> 207 ;
208 [label=<gillcolor &le; 6.5<br/>entropy = 0.323<br/>samples = 17<br/>value = [1, 16]<br/>class = NP>, fillcolor="#399de5ef"] ;
207 -> 208 ;
209 [label=<habitat &le; 4.5<br/>entropy = 0.722<br/>samples = 5<br/>value = [1, 4]<br/>class = NP>, fillcolor="#399de5bf"] ;
208 -> 209 ;
210 [label=<entropy = 0.0<br/>samples = 2<br/>value = [0, 2]<br/>class = NP>, fillcolor="#399de5ff"] ;
209 -> 210 ;
211 [label=<capsurface &le; 14.5<br/>entropy = 0.918<br/>samples = 3<br/>value = [1, 2]<br/>class = NP>, fillcolor="#399de57f"] ;
209 -> 211 ;
212 [label=<population &le; 22.5<br/>entropy = 1.0<br/>samples = 2<br/>value = [1, 1]<br/>class = P>, fillcolor="#e5813900"] ;
211 -> 212 ;
213 [label=<entropy = 0.0<br/>samples = 1<br/>value = [0, 1]<br/>class = NP>, fillcolor="#399de5ff"] ;
212 -> 213 ;
214 [label=<entropy = 0.0<br/>samples = 1<br/>value = [1, 0]<br/>class = P>, fillcolor="#e58139ff"] ;
212 -> 214 ;
215 [label=<entropy = 0.0<br/>samples = 1<br/>value = [0, 1]<br/>class = NP>, fillcolor="#399de5ff"] ;
211 -> 215 ;
216 [label=<entropy = 0.0<br/>samples = 12<br/>value = [0, 12]<br/>class = NP>, fillcolor="#399de5ff"] ;
208 -> 216 ;
217 [label=<capcolor &le; 23.0<br/>entropy = 0.795<br/>samples = 25<br/>value = [6, 19]<br/>class = NP>, fillcolor="#399de5ae"] ;
207 -> 217 ;
218 [label=<stalksurfaceabovering &le; 14.0<br/>entropy = 0.567<br/>samples = 15<br/>value = [2, 13]<br/>class = NP>, fillcolor="#399de5d8"] ;
217 -> 218 ;
219 [label=<entropy = 0.0<br/>samples = 9<br/>value = [0, 9]<br/>class = NP>, fillcolor="#399de5ff"] ;
218 -> 219 ;
220 [label=<capcolor &le; 14.0<br/>entropy = 0.918<br/>samples = 6<br/>value = [2, 4]<br/>class = NP>, fillcolor="#399de57f"] ;
218 -> 220 ;
221 [label=<gillcolor &le; 11.0<br/>entropy = 1.0<br/>samples = 4<br/>value = [2, 2]<br/>class = P>, fillcolor="#e5813900"] ;
220 -> 221 ;
222 [label=<entropy = 0.0<br/>samples = 1<br/>value = [1, 0]<br/>class = P>, fillcolor="#e58139ff"] ;
221 -> 222 ;
223 [label=<capcolor &le; 3.5<br/>entropy = 0.918<br/>samples = 3<br/>value = [1, 2]<br/>class = NP>, fillcolor="#399de57f"] ;
221 -> 223 ;
224 [label=<population &le; 19.5<br/>entropy = 1.0<br/>samples = 2<br/>value = [1, 1]<br/>class = P>, fillcolor="#e5813900"] ;
223 -> 224 ;
225 [label=<entropy = 0.0<br/>samples = 1<br/>value = [1, 0]<br/>class = P>, fillcolor="#e58139ff"] ;
224 -> 225 ;
226 [label=<entropy = 0.0<br/>samples = 1<br/>value = [0, 1]<br/>class = NP>, fillcolor="#399de5ff"] ;
224 -> 226 ;
227 [label=<entropy = 0.0<br/>samples = 1<br/>value = [0, 1]<br/>class = NP>, fillcolor="#399de5ff"] ;
223 -> 227 ;
228 [label=<entropy = 0.0<br/>samples = 2<br/>value = [0, 2]<br/>class = NP>, fillcolor="#399de5ff"] ;
220 -> 228 ;
229 [label=<gillcolor &le; 6.5<br/>entropy = 0.971<br/>samples = 10<br/>value = [4, 6]<br/>class = NP>, fillcolor="#399de555"] ;
217 -> 229 ;
230 [label=<entropy = 0.0<br/>samples = 2<br/>value = [2, 0]<br/>class = P>, fillcolor="#e58139ff"] ;
229 -> 230 ;
231 [label=<gillcolor &le; 11.0<br/>entropy = 0.811<br/>samples = 8<br/>value = [2, 6]<br/>class = NP>, fillcolor="#399de5aa"] ;
229 -> 231 ;
232 [label=<capsurface &le; 14.5<br/>entropy = 0.65<br/>samples = 6<br/>value = [1, 5]<br/>class = NP>, fillcolor="#399de5cc"] ;
231 -> 232 ;
233 [label=<habitat &le; 4.5<br/>entropy = 0.918<br/>samples = 3<br/>value = [1, 2]<br/>class = NP>, fillcolor="#399de57f"] ;
232 -> 233 ;
234 [label=<entropy = 0.0<br/>samples = 2<br/>value = [0, 2]<br/>class = NP>, fillcolor="#399de5ff"] ;
233 -> 234 ;
235 [label=<entropy = 0.0<br/>samples = 1<br/>value = [1, 0]<br/>class = P>, fillcolor="#e58139ff"] ;
233 -> 235 ;
236 [label=<entropy = 0.0<br/>samples = 3<br/>value = [0, 3]<br/>class = NP>, fillcolor="#399de5ff"] ;
232 -> 236 ;
237 [label=<capsurface &le; 14.5<br/>entropy = 1.0<br/>samples = 2<br/>value = [1, 1]<br/>class = P>, fillcolor="#e5813900"] ;
231 -> 237 ;
238 [label=<entropy = 0.0<br/>samples = 1<br/>value = [0, 1]<br/>class = NP>, fillcolor="#399de5ff"] ;
237 -> 238 ;
239 [label=<entropy = 0.0<br/>samples = 1<br/>value = [1, 0]<br/>class = P>, fillcolor="#e58139ff"] ;
237 -> 239 ;
240 [label=<entropy = 0.0<br/>samples = 6<br/>value = [0, 6]<br/>class = NP>, fillcolor="#399de5ff"] ;
148 -> 240 ;
241 [label=<population &le; 22.5<br/>entropy = 0.702<br/>samples = 121<br/>value = [23, 98]<br/>class = NP>, fillcolor="#399de5c3"] ;
121 -> 241 ;
242 [label=<stalksurfacebelowring &le; 7.5<br/>entropy = 0.755<br/>samples = 92<br/>value = [20, 72]<br/>class = NP>, fillcolor="#399de5b8"] ;
241 -> 242 ;
243 [label=<capshape &le; 14.0<br/>entropy = 0.567<br/>samples = 30<br/>value = [4, 26]<br/>class = NP>, fillcolor="#399de5d8"] ;
242 -> 243 ;
244 [label=<capcolor &le; 3.5<br/>entropy = 0.779<br/>samples = 13<br/>value = [3, 10]<br/>class = NP>, fillcolor="#399de5b3"] ;
243 -> 244 ;
245 [label=<stalksurfaceabovering &le; 11.5<br/>entropy = 1.0<br/>samples = 4<br/>value = [2, 2]<br/>class = P>, fillcolor="#e5813900"] ;
244 -> 245 ;
246 [label=<population &le; 19.5<br/>entropy = 1.0<br/>samples = 2<br/>value = [1, 1]<br/>class = P>, fillcolor="#e5813900"] ;
245 -> 246 ;
247 [label=<entropy = 0.0<br/>samples = 1<br/>value = [0, 1]<br/>class = NP>, fillcolor="#399de5ff"] ;
246 -> 247 ;
248 [label=<entropy = 0.0<br/>samples = 1<br/>value = [1, 0]<br/>class = P>, fillcolor="#e58139ff"] ;
246 -> 248 ;
249 [label=<population &le; 19.5<br/>entropy = 1.0<br/>samples = 2<br/>value = [1, 1]<br/>class = P>, fillcolor="#e5813900"] ;
245 -> 249 ;
250 [label=<entropy = 0.0<br/>samples = 1<br/>value = [1, 0]<br/>class = P>, fillcolor="#e58139ff"] ;
249 -> 250 ;
251 [label=<entropy = 0.0<br/>samples = 1<br/>value = [0, 1]<br/>class = NP>, fillcolor="#399de5ff"] ;
249 -> 251 ;
252 [label=<gillcolor &le; 11.0<br/>entropy = 0.503<br/>samples = 9<br/>value = [1, 8]<br/>class = NP>, fillcolor="#399de5df"] ;
244 -> 252 ;
253 [label=<population &le; 19.5<br/>entropy = 0.918<br/>samples = 3<br/>value = [1, 2]<br/>class = NP>, fillcolor="#399de57f"] ;
252 -> 253 ;
254 [label=<entropy = 0.0<br/>samples = 2<br/>value = [0, 2]<br/>class = NP>, fillcolor="#399de5ff"] ;
253 -> 254 ;
255 [label=<entropy = 0.0<br/>samples = 1<br/>value = [1, 0]<br/>class = P>, fillcolor="#e58139ff"] ;
253 -> 255 ;
256 [label=<entropy = 0.0<br/>samples = 6<br/>value = [0, 6]<br/>class = NP>, fillcolor="#399de5ff"] ;
252 -> 256 ;
257 [label=<gillcolor &le; 18.5<br/>entropy = 0.323<br/>samples = 17<br/>value = [1, 16]<br/>class = NP>, fillcolor="#399de5ef"] ;
243 -> 257 ;
258 [label=<entropy = 0.0<br/>samples = 10<br/>value = [0, 10]<br/>class = NP>, fillcolor="#399de5ff"] ;
257 -> 258 ;
259 [label=<capcolor &le; 3.5<br/>entropy = 0.592<br/>samples = 7<br/>value = [1, 6]<br/>class = NP>, fillcolor="#399de5d4"] ;
257 -> 259 ;
260 [label=<entropy = 0.0<br/>samples = 3<br/>value = [0, 3]<br/>class = NP>, fillcolor="#399de5ff"] ;
259 -> 260 ;
261 [label=<population &le; 19.5<br/>entropy = 0.811<br/>samples = 4<br/>value = [1, 3]<br/>class = NP>, fillcolor="#399de5aa"] ;
259 -> 261 ;
262 [label=<entropy = 0.0<br/>samples = 2<br/>value = [0, 2]<br/>class = NP>, fillcolor="#399de5ff"] ;
261 -> 262 ;
263 [label=<capcolor &le; 14.0<br/>entropy = 1.0<br/>samples = 2<br/>value = [1, 1]<br/>class = P>, fillcolor="#e5813900"] ;
261 -> 263 ;
264 [label=<entropy = 0.0<br/>samples = 1<br/>value = [1, 0]<br/>class = P>, fillcolor="#e58139ff"] ;
263 -> 264 ;
265 [label=<entropy = 0.0<br/>samples = 1<br/>value = [0, 1]<br/>class = NP>, fillcolor="#399de5ff"] ;
263 -> 265 ;
266 [label=<gillcolor &le; 18.5<br/>entropy = 0.824<br/>samples = 62<br/>value = [16, 46]<br/>class = NP>, fillcolor="#399de5a6"] ;
242 -> 266 ;
267 [label=<capcolor &le; 3.5<br/>entropy = 0.768<br/>samples = 49<br/>value = [11, 38]<br/>class = NP>, fillcolor="#399de5b5"] ;
266 -> 267 ;
268 [label=<entropy = 0.0<br/>samples = 5<br/>value = [0, 5]<br/>class = NP>, fillcolor="#399de5ff"] ;
267 -> 268 ;
269 [label=<stalksurfaceabovering &le; 14.0<br/>entropy = 0.811<br/>samples = 44<br/>value = [11, 33]<br/>class = NP>, fillcolor="#399de5aa"] ;
267 -> 269 ;
270 [label=<population &le; 19.5<br/>entropy = 0.753<br/>samples = 37<br/>value = [8, 29]<br/>class = NP>, fillcolor="#399de5b9"] ;
269 -> 270 ;
271 [label=<entropy = 0.0<br/>samples = 3<br/>value = [0, 3]<br/>class = NP>, fillcolor="#399de5ff"] ;
270 -> 271 ;
272 [label=<gillcolor &le; 6.5<br/>entropy = 0.787<br/>samples = 34<br/>value = [8, 26]<br/>class = NP>, fillcolor="#399de5b1"] ;
270 -> 272 ;
273 [label=<stalkcolorabovering &le; 14.0<br/>entropy = 0.918<br/>samples = 9<br/>value = [3, 6]<br/>class = NP>, fillcolor="#399de57f"] ;
272 -> 273 ;
274 [label=<capcolor &le; 15.0<br/>entropy = 0.985<br/>samples = 7<br/>value = [3, 4]<br/>class = NP>, fillcolor="#399de540"] ;
273 -> 274 ;
275 [label=<capshape &le; 14.0<br/>entropy = 0.811<br/>samples = 4<br/>value = [1, 3]<br/>class = NP>, fillcolor="#399de5aa"] ;
274 -> 275 ;
276 [label=<entropy = 0.0<br/>samples = 2<br/>value = [0, 2]<br/>class = NP>, fillcolor="#399de5ff"] ;
275 -> 276 ;
277 [label=<stalkcolorabovering &le; 7.0<br/>entropy = 1.0<br/>samples = 2<br/>value = [1, 1]<br/>class = P>, fillcolor="#e5813900"] ;
275 -> 277 ;
278 [label=<entropy = 0.0<br/>samples = 1<br/>value = [0, 1]<br/>class = NP>, fillcolor="#399de5ff"] ;
277 -> 278 ;
279 [label=<entropy = 0.0<br/>samples = 1<br/>value = [1, 0]<br/>class = P>, fillcolor="#e58139ff"] ;
277 -> 279 ;
280 [label=<capsurface &le; 14.5<br/>entropy = 0.918<br/>samples = 3<br/>value = [2, 1]<br/>class = P>, fillcolor="#e581397f"] ;
274 -> 280 ;
281 [label=<entropy = 0.0<br/>samples = 2<br/>value = [2, 0]<br/>class = P>, fillcolor="#e58139ff"] ;
280 -> 281 ;
282 [label=<entropy = 0.0<br/>samples = 1<br/>value = [0, 1]<br/>class = NP>, fillcolor="#399de5ff"] ;
280 -> 282 ;
283 [label=<entropy = 0.0<br/>samples = 2<br/>value = [0, 2]<br/>class = NP>, fillcolor="#399de5ff"] ;
273 -> 283 ;
284 [label=<capsurface &le; 21.0<br/>entropy = 0.722<br/>samples = 25<br/>value = [5, 20]<br/>class = NP>, fillcolor="#399de5bf"] ;
272 -> 284 ;
285 [label=<capcolor &le; 14.0<br/>entropy = 0.672<br/>samples = 17<br/>value = [3, 14]<br/>class = NP>, fillcolor="#399de5c8"] ;
284 -> 285 ;
286 [label=<capshape &le; 14.0<br/>entropy = 0.811<br/>samples = 8<br/>value = [2, 6]<br/>class = NP>, fillcolor="#399de5aa"] ;
285 -> 286 ;
287 [label=<gillcolor &le; 11.0<br/>entropy = 0.918<br/>samples = 3<br/>value = [2, 1]<br/>class = P>, fillcolor="#e581397f"] ;
286 -> 287 ;
288 [label=<entropy = 0.0<br/>samples = 2<br/>value = [2, 0]<br/>class = P>, fillcolor="#e58139ff"] ;
287 -> 288 ;
289 [label=<entropy = 0.0<br/>samples = 1<br/>value = [0, 1]<br/>class = NP>, fillcolor="#399de5ff"] ;
287 -> 289 ;
290 [label=<entropy = 0.0<br/>samples = 5<br/>value = [0, 5]<br/>class = NP>, fillcolor="#399de5ff"] ;
286 -> 290 ;
291 [label=<capshape &le; 14.0<br/>entropy = 0.503<br/>samples = 9<br/>value = [1, 8]<br/>class = NP>, fillcolor="#399de5df"] ;
285 -> 291 ;
292 [label=<entropy = 0.0<br/>samples = 6<br/>value = [0, 6]<br/>class = NP>, fillcolor="#399de5ff"] ;
291 -> 292 ;
293 [label=<habitat &le; 17.5<br/>entropy = 0.918<br/>samples = 3<br/>value = [1, 2]<br/>class = NP>, fillcolor="#399de57f"] ;
291 -> 293 ;
294 [label=<entropy = 0.0<br/>samples = 1<br/>value = [1, 0]<br/>class = P>, fillcolor="#e58139ff"] ;
293 -> 294 ;
295 [label=<entropy = 0.0<br/>samples = 2<br/>value = [0, 2]<br/>class = NP>, fillcolor="#399de5ff"] ;
293 -> 295 ;
296 [label=<gillcolor &le; 11.0<br/>entropy = 0.811<br/>samples = 8<br/>value = [2, 6]<br/>class = NP>, fillcolor="#399de5aa"] ;
284 -> 296 ;
297 [label=<capcolor &le; 15.0<br/>entropy = 0.65<br/>samples = 6<br/>value = [1, 5]<br/>class = NP>, fillcolor="#399de5cc"] ;
296 -> 297 ;
298 [label=<entropy = 0.0<br/>samples = 4<br/>value = [0, 4]<br/>class = NP>, fillcolor="#399de5ff"] ;
297 -> 298 ;
299 [label=<capshape &le; 14.0<br/>entropy = 1.0<br/>samples = 2<br/>value = [1, 1]<br/>class = P>, fillcolor="#e5813900"] ;
297 -> 299 ;
300 [label=<entropy = 0.0<br/>samples = 1<br/>value = [0, 1]<br/>class = NP>, fillcolor="#399de5ff"] ;
299 -> 300 ;
301 [label=<entropy = 0.0<br/>samples = 1<br/>value = [1, 0]<br/>class = P>, fillcolor="#e58139ff"] ;
299 -> 301 ;
302 [label=<stalkcolorabovering &le; 8.0<br/>entropy = 1.0<br/>samples = 2<br/>value = [1, 1]<br/>class = P>, fillcolor="#e5813900"] ;
296 -> 302 ;
303 [label=<entropy = 0.0<br/>samples = 1<br/>value = [1, 0]<br/>class = P>, fillcolor="#e58139ff"] ;
302 -> 303 ;
304 [label=<entropy = 0.0<br/>samples = 1<br/>value = [0, 1]<br/>class = NP>, fillcolor="#399de5ff"] ;
302 -> 304 ;
305 [label=<capcolor &le; 14.0<br/>entropy = 0.985<br/>samples = 7<br/>value = [3, 4]<br/>class = NP>, fillcolor="#399de540"] ;
269 -> 305 ;
306 [label=<capshape &le; 14.0<br/>entropy = 0.811<br/>samples = 4<br/>value = [3, 1]<br/>class = P>, fillcolor="#e58139aa"] ;
305 -> 306 ;
307 [label=<entropy = 0.0<br/>samples = 2<br/>value = [2, 0]<br/>class = P>, fillcolor="#e58139ff"] ;
306 -> 307 ;
308 [label=<population &le; 19.5<br/>entropy = 1.0<br/>samples = 2<br/>value = [1, 1]<br/>class = P>, fillcolor="#e5813900"] ;
306 -> 308 ;
309 [label=<entropy = 0.0<br/>samples = 1<br/>value = [0, 1]<br/>class = NP>, fillcolor="#399de5ff"] ;
308 -> 309 ;
310 [label=<entropy = 0.0<br/>samples = 1<br/>value = [1, 0]<br/>class = P>, fillcolor="#e58139ff"] ;
308 -> 310 ;
311 [label=<entropy = 0.0<br/>samples = 3<br/>value = [0, 3]<br/>class = NP>, fillcolor="#399de5ff"] ;
305 -> 311 ;
312 [label=<stalksurfaceabovering &le; 11.5<br/>entropy = 0.961<br/>samples = 13<br/>value = [5, 8]<br/>class = NP>, fillcolor="#399de560"] ;
266 -> 312 ;
313 [label=<population &le; 19.5<br/>entropy = 0.985<br/>samples = 7<br/>value = [4, 3]<br/>class = P>, fillcolor="#e5813940"] ;
312 -> 313 ;
314 [label=<entropy = 0.0<br/>samples = 2<br/>value = [2, 0]<br/>class = P>, fillcolor="#e58139ff"] ;
313 -> 314 ;
315 [label=<capcolor &le; 14.0<br/>entropy = 0.971<br/>samples = 5<br/>value = [2, 3]<br/>class = NP>, fillcolor="#399de555"] ;
313 -> 315 ;
316 [label=<capshape &le; 14.0<br/>entropy = 1.0<br/>samples = 4<br/>value = [2, 2]<br/>class = P>, fillcolor="#e5813900"] ;
315 -> 316 ;
317 [label=<capcolor &le; 3.5<br/>entropy = 1.0<br/>samples = 2<br/>value = [1, 1]<br/>class = P>, fillcolor="#e5813900"] ;
316 -> 317 ;
318 [label=<entropy = 0.0<br/>samples = 1<br/>value = [1, 0]<br/>class = P>, fillcolor="#e58139ff"] ;
317 -> 318 ;
319 [label=<entropy = 0.0<br/>samples = 1<br/>value = [0, 1]<br/>class = NP>, fillcolor="#399de5ff"] ;
317 -> 319 ;
320 [label=<capcolor &le; 3.5<br/>entropy = 1.0<br/>samples = 2<br/>value = [1, 1]<br/>class = P>, fillcolor="#e5813900"] ;
316 -> 320 ;
321 [label=<entropy = 0.0<br/>samples = 1<br/>value = [0, 1]<br/>class = NP>, fillcolor="#399de5ff"] ;
320 -> 321 ;
322 [label=<entropy = 0.0<br/>samples = 1<br/>value = [1, 0]<br/>class = P>, fillcolor="#e58139ff"] ;
320 -> 322 ;
323 [label=<entropy = 0.0<br/>samples = 1<br/>value = [0, 1]<br/>class = NP>, fillcolor="#399de5ff"] ;
315 -> 323 ;
324 [label=<capcolor &le; 3.5<br/>entropy = 0.65<br/>samples = 6<br/>value = [1, 5]<br/>class = NP>, fillcolor="#399de5cc"] ;
312 -> 324 ;
325 [label=<entropy = 0.0<br/>samples = 1<br/>value = [1, 0]<br/>class = P>, fillcolor="#e58139ff"] ;
324 -> 325 ;
326 [label=<entropy = 0.0<br/>samples = 5<br/>value = [0, 5]<br/>class = NP>, fillcolor="#399de5ff"] ;
324 -> 326 ;
327 [label=<stalkcolorabovering &le; 14.0<br/>entropy = 0.48<br/>samples = 29<br/>value = [3, 26]<br/>class = NP>, fillcolor="#399de5e2"] ;
241 -> 327 ;
328 [label=<capsurface &le; 14.5<br/>entropy = 0.629<br/>samples = 19<br/>value = [3, 16]<br/>class = NP>, fillcolor="#399de5cf"] ;
327 -> 328 ;
329 [label=<gillcolor &le; 6.5<br/>entropy = 0.764<br/>samples = 9<br/>value = [2, 7]<br/>class = NP>, fillcolor="#399de5b6"] ;
328 -> 329 ;
330 [label=<entropy = 0.0<br/>samples = 4<br/>value = [0, 4]<br/>class = NP>, fillcolor="#399de5ff"] ;
329 -> 330 ;
331 [label=<stalkcolorabovering &le; 7.0<br/>entropy = 0.971<br/>samples = 5<br/>value = [2, 3]<br/>class = NP>, fillcolor="#399de555"] ;
329 -> 331 ;
332 [label=<entropy = 0.0<br/>samples = 1<br/>value = [0, 1]<br/>class = NP>, fillcolor="#399de5ff"] ;
331 -> 332 ;
333 [label=<gillcolor &le; 11.0<br/>entropy = 1.0<br/>samples = 4<br/>value = [2, 2]<br/>class = P>, fillcolor="#e5813900"] ;
331 -> 333 ;
334 [label=<entropy = 0.0<br/>samples = 1<br/>value = [1, 0]<br/>class = P>, fillcolor="#e58139ff"] ;
333 -> 334 ;
335 [label=<capcolor &le; 15.0<br/>entropy = 0.918<br/>samples = 3<br/>value = [1, 2]<br/>class = NP>, fillcolor="#399de57f"] ;
333 -> 335 ;
336 [label=<entropy = 0.0<br/>samples = 1<br/>value = [1, 0]<br/>class = P>, fillcolor="#e58139ff"] ;
335 -> 336 ;
337 [label=<entropy = 0.0<br/>samples = 2<br/>value = [0, 2]<br/>class = NP>, fillcolor="#399de5ff"] ;
335 -> 337 ;
338 [label=<gillcolor &le; 6.5<br/>entropy = 0.469<br/>samples = 10<br/>value = [1, 9]<br/>class = NP>, fillcolor="#399de5e3"] ;
328 -> 338 ;
339 [label=<capcolor &le; 15.0<br/>entropy = 1.0<br/>samples = 2<br/>value = [1, 1]<br/>class = P>, fillcolor="#e5813900"] ;
338 -> 339 ;
340 [label=<entropy = 0.0<br/>samples = 1<br/>value = [0, 1]<br/>class = NP>, fillcolor="#399de5ff"] ;
339 -> 340 ;
341 [label=<entropy = 0.0<br/>samples = 1<br/>value = [1, 0]<br/>class = P>, fillcolor="#e58139ff"] ;
339 -> 341 ;
342 [label=<entropy = 0.0<br/>samples = 8<br/>value = [0, 8]<br/>class = NP>, fillcolor="#399de5ff"] ;
338 -> 342 ;
343 [label=<entropy = 0.0<br/>samples = 10<br/>value = [0, 10]<br/>class = NP>, fillcolor="#399de5ff"] ;
327 -> 343 ;
344 [label=<gillsize &le; 7.0<br/>entropy = 0.73<br/>samples = 1628<br/>value = [1296, 332]<br/>class = P>, fillcolor="#e58139be"] ;
0 -> 344 [labeldistance=2.5, labelangle=-45, headlabel="False"] ;
345 [label=<sporeprintcolor &le; 15.0<br/>entropy = 0.511<br/>samples = 1354<br/>value = [1200, 154]<br/>class = P>, fillcolor="#e58139de"] ;
344 -> 345 ;
346 [label=<habitat &le; 13.5<br/>entropy = 0.443<br/>samples = 1303<br/>value = [1183, 120]<br/>class = P>, fillcolor="#e58139e5"] ;
345 -> 346 ;
347 [label=<stalksurfacebelowring &le; 21.0<br/>entropy = 0.45<br/>samples = 1265<br/>value = [1146, 119]<br/>class = P>, fillcolor="#e58139e5"] ;
346 -> 347 ;
348 [label=<gillcolor &le; 6.5<br/>entropy = 0.439<br/>samples = 1232<br/>value = [1120, 112]<br/>class = P>, fillcolor="#e58139e6"] ;
347 -> 348 ;
349 [label=<habitat &le; 9.0<br/>entropy = 0.239<br/>samples = 51<br/>value = [49, 2]<br/>class = P>, fillcolor="#e58139f5"] ;
348 -> 349 ;
350 [label=<entropy = 0.0<br/>samples = 25<br/>value = [25, 0]<br/>class = P>, fillcolor="#e58139ff"] ;
349 -> 350 ;
351 [label=<sporeprintcolor &le; 11.5<br/>entropy = 0.391<br/>samples = 26<br/>value = [24, 2]<br/>class = P>, fillcolor="#e58139ea"] ;
349 -> 351 ;
352 [label=<entropy = 0.0<br/>samples = 11<br/>value = [11, 0]<br/>class = P>, fillcolor="#e58139ff"] ;
351 -> 352 ;
353 [label=<odor &le; 5.5<br/>entropy = 0.567<br/>samples = 15<br/>value = [13, 2]<br/>class = P>, fillcolor="#e58139d8"] ;
351 -> 353 ;
354 [label=<capcolor &le; 23.0<br/>entropy = 0.811<br/>samples = 8<br/>value = [6, 2]<br/>class = P>, fillcolor="#e58139aa"] ;
353 -> 354 ;
355 [label=<capsurface &le; 21.0<br/>entropy = 0.918<br/>samples = 3<br/>value = [2, 1]<br/>class = P>, fillcolor="#e581397f"] ;
354 -> 355 ;
356 [label=<entropy = 0.0<br/>samples = 2<br/>value = [2, 0]<br/>class = P>, fillcolor="#e58139ff"] ;
355 -> 356 ;
357 [label=<entropy = 0.0<br/>samples = 1<br/>value = [0, 1]<br/>class = NP>, fillcolor="#399de5ff"] ;
355 -> 357 ;
358 [label=<capshape &le; 12.0<br/>entropy = 0.722<br/>samples = 5<br/>value = [4, 1]<br/>class = P>, fillcolor="#e58139bf"] ;
354 -> 358 ;
359 [label=<capsurface &le; 21.0<br/>entropy = 0.918<br/>samples = 3<br/>value = [2, 1]<br/>class = P>, fillcolor="#e581397f"] ;
358 -> 359 ;
360 [label=<population &le; 15.5<br/>entropy = 1.0<br/>samples = 2<br/>value = [1, 1]<br/>class = P>, fillcolor="#e5813900"] ;
359 -> 360 ;
361 [label=<entropy = 0.0<br/>samples = 1<br/>value = [1, 0]<br/>class = P>, fillcolor="#e58139ff"] ;
360 -> 361 ;
362 [label=<entropy = 0.0<br/>samples = 1<br/>value = [0, 1]<br/>class = NP>, fillcolor="#399de5ff"] ;
360 -> 362 ;
363 [label=<entropy = 0.0<br/>samples = 1<br/>value = [1, 0]<br/>class = P>, fillcolor="#e58139ff"] ;
359 -> 363 ;
364 [label=<entropy = 0.0<br/>samples = 2<br/>value = [2, 0]<br/>class = P>, fillcolor="#e58139ff"] ;
358 -> 364 ;
365 [label=<entropy = 0.0<br/>samples = 7<br/>value = [7, 0]<br/>class = P>, fillcolor="#e58139ff"] ;
353 -> 365 ;
366 [label=<odor &le; 5.5<br/>entropy = 0.447<br/>samples = 1181<br/>value = [1071, 110]<br/>class = P>, fillcolor="#e58139e5"] ;
348 -> 366 ;
367 [label=<sporeprintcolor &le; 11.5<br/>entropy = 0.573<br/>samples = 81<br/>value = [70, 11]<br/>class = P>, fillcolor="#e58139d7"] ;
366 -> 367 ;
368 [label=<capshape &le; 12.0<br/>entropy = 0.303<br/>samples = 37<br/>value = [35, 2]<br/>class = P>, fillcolor="#e58139f0"] ;
367 -> 368 ;
369 [label=<gillcolor &le; 11.5<br/>entropy = 0.503<br/>samples = 18<br/>value = [16, 2]<br/>class = P>, fillcolor="#e58139df"] ;
368 -> 369 ;
370 [label=<capsurface &le; 21.0<br/>entropy = 0.65<br/>samples = 6<br/>value = [5, 1]<br/>class = P>, fillcolor="#e58139cc"] ;
369 -> 370 ;
371 [label=<population &le; 15.5<br/>entropy = 1.0<br/>samples = 2<br/>value = [1, 1]<br/>class = P>, fillcolor="#e5813900"] ;
370 -> 371 ;
372 [label=<entropy = 0.0<br/>samples = 1<br/>value = [0, 1]<br/>class = NP>, fillcolor="#399de5ff"] ;
371 -> 372 ;
373 [label=<entropy = 0.0<br/>samples = 1<br/>value = [1, 0]<br/>class = P>, fillcolor="#e58139ff"] ;
371 -> 373 ;
374 [label=<entropy = 0.0<br/>samples = 4<br/>value = [4, 0]<br/>class = P>, fillcolor="#e58139ff"] ;
370 -> 374 ;
375 [label=<population &le; 15.5<br/>entropy = 0.414<br/>samples = 12<br/>value = [11, 1]<br/>class = P>, fillcolor="#e58139e8"] ;
369 -> 375 ;
376 [label=<entropy = 0.0<br/>samples = 6<br/>value = [6, 0]<br/>class = P>, fillcolor="#e58139ff"] ;
375 -> 376 ;
377 [label=<capcolor &le; 23.0<br/>entropy = 0.65<br/>samples = 6<br/>value = [5, 1]<br/>class = P>, fillcolor="#e58139cc"] ;
375 -> 377 ;
378 [label=<entropy = 0.0<br/>samples = 3<br/>value = [3, 0]<br/>class = P>, fillcolor="#e58139ff"] ;
377 -> 378 ;
379 [label=<habitat &le; 9.0<br/>entropy = 0.918<br/>samples = 3<br/>value = [2, 1]<br/>class = P>, fillcolor="#e581397f"] ;
377 -> 379 ;
380 [label=<gillcolor &le; 17.5<br/>entropy = 1.0<br/>samples = 2<br/>value = [1, 1]<br/>class = P>, fillcolor="#e5813900"] ;
379 -> 380 ;
381 [label=<entropy = 0.0<br/>samples = 1<br/>value = [1, 0]<br/>class = P>, fillcolor="#e58139ff"] ;
380 -> 381 ;
382 [label=<entropy = 0.0<br/>samples = 1<br/>value = [0, 1]<br/>class = NP>, fillcolor="#399de5ff"] ;
380 -> 382 ;
383 [label=<entropy = 0.0<br/>samples = 1<br/>value = [1, 0]<br/>class = P>, fillcolor="#e58139ff"] ;
379 -> 383 ;
384 [label=<entropy = 0.0<br/>samples = 19<br/>value = [19, 0]<br/>class = P>, fillcolor="#e58139ff"] ;
368 -> 384 ;
385 [label=<capcolor &le; 23.0<br/>entropy = 0.731<br/>samples = 44<br/>value = [35, 9]<br/>class = P>, fillcolor="#e58139bd"] ;
367 -> 385 ;
386 [label=<habitat &le; 9.0<br/>entropy = 0.871<br/>samples = 24<br/>value = [17, 7]<br/>class = P>, fillcolor="#e5813996"] ;
385 -> 386 ;
387 [label=<capshape &le; 12.0<br/>entropy = 0.619<br/>samples = 13<br/>value = [11, 2]<br/>class = P>, fillcolor="#e58139d1"] ;
386 -> 387 ;
388 [label=<gillcolor &le; 11.5<br/>entropy = 0.764<br/>samples = 9<br/>value = [7, 2]<br/>class = P>, fillcolor="#e58139b6"] ;
387 -> 388 ;
389 [label=<capsurface &le; 21.0<br/>entropy = 0.918<br/>samples = 3<br/>value = [2, 1]<br/>class = P>, fillcolor="#e581397f"] ;
388 -> 389 ;
390 [label=<entropy = 0.0<br/>samples = 2<br/>value = [2, 0]<br/>class = P>, fillcolor="#e58139ff"] ;
389 -> 390 ;
391 [label=<entropy = 0.0<br/>samples = 1<br/>value = [0, 1]<br/>class = NP>, fillcolor="#399de5ff"] ;
389 -> 391 ;
392 [label=<capsurface &le; 21.0<br/>entropy = 0.65<br/>samples = 6<br/>value = [5, 1]<br/>class = P>, fillcolor="#e58139cc"] ;
388 -> 392 ;
393 [label=<gillcolor &le; 17.5<br/>entropy = 1.0<br/>samples = 2<br/>value = [1, 1]<br/>class = P>, fillcolor="#e5813900"] ;
392 -> 393 ;
394 [label=<entropy = 0.0<br/>samples = 1<br/>value = [1, 0]<br/>class = P>, fillcolor="#e58139ff"] ;
393 -> 394 ;
395 [label=<entropy = 0.0<br/>samples = 1<br/>value = [0, 1]<br/>class = NP>, fillcolor="#399de5ff"] ;
393 -> 395 ;
396 [label=<entropy = 0.0<br/>samples = 4<br/>value = [4, 0]<br/>class = P>, fillcolor="#e58139ff"] ;
392 -> 396 ;
397 [label=<entropy = 0.0<br/>samples = 4<br/>value = [4, 0]<br/>class = P>, fillcolor="#e58139ff"] ;
387 -> 397 ;
398 [label=<gillcolor &le; 11.5<br/>entropy = 0.994<br/>samples = 11<br/>value = [6, 5]<br/>class = P>, fillcolor="#e581392a"] ;
386 -> 398 ;
399 [label=<capsurface &le; 21.0<br/>entropy = 0.722<br/>samples = 5<br/>value = [4, 1]<br/>class = P>, fillcolor="#e58139bf"] ;
398 -> 399 ;
400 [label=<entropy = 0.0<br/>samples = 3<br/>value = [3, 0]<br/>class = P>, fillcolor="#e58139ff"] ;
399 -> 400 ;
401 [label=<capshape &le; 12.0<br/>entropy = 1.0<br/>samples = 2<br/>value = [1, 1]<br/>class = P>, fillcolor="#e5813900"] ;
399 -> 401 ;
402 [label=<entropy = 0.0<br/>samples = 1<br/>value = [1, 0]<br/>class = P>, fillcolor="#e58139ff"] ;
401 -> 402 ;
403 [label=<entropy = 0.0<br/>samples = 1<br/>value = [0, 1]<br/>class = NP>, fillcolor="#399de5ff"] ;
401 -> 403 ;
404 [label=<gillcolor &le; 17.5<br/>entropy = 0.918<br/>samples = 6<br/>value = [2, 4]<br/>class = NP>, fillcolor="#399de57f"] ;
398 -> 404 ;
405 [label=<entropy = 0.0<br/>samples = 2<br/>value = [0, 2]<br/>class = NP>, fillcolor="#399de5ff"] ;
404 -> 405 ;
406 [label=<population &le; 15.5<br/>entropy = 1.0<br/>samples = 4<br/>value = [2, 2]<br/>class = P>, fillcolor="#e5813900"] ;
404 -> 406 ;
407 [label=<entropy = 0.0<br/>samples = 1<br/>value = [0, 1]<br/>class = NP>, fillcolor="#399de5ff"] ;
406 -> 407 ;
408 [label=<capshape &le; 12.0<br/>entropy = 0.918<br/>samples = 3<br/>value = [2, 1]<br/>class = P>, fillcolor="#e581397f"] ;
406 -> 408 ;
409 [label=<capsurface &le; 21.0<br/>entropy = 1.0<br/>samples = 2<br/>value = [1, 1]<br/>class = P>, fillcolor="#e5813900"] ;
408 -> 409 ;
410 [label=<entropy = 0.0<br/>samples = 1<br/>value = [1, 0]<br/>class = P>, fillcolor="#e58139ff"] ;
409 -> 410 ;
411 [label=<entropy = 0.0<br/>samples = 1<br/>value = [0, 1]<br/>class = NP>, fillcolor="#399de5ff"] ;
409 -> 411 ;
412 [label=<entropy = 0.0<br/>samples = 1<br/>value = [1, 0]<br/>class = P>, fillcolor="#e58139ff"] ;
408 -> 412 ;
413 [label=<habitat &le; 9.0<br/>entropy = 0.469<br/>samples = 20<br/>value = [18, 2]<br/>class = P>, fillcolor="#e58139e3"] ;
385 -> 413 ;
414 [label=<gillcolor &le; 17.5<br/>entropy = 0.684<br/>samples = 11<br/>value = [9, 2]<br/>class = P>, fillcolor="#e58139c6"] ;
413 -> 414 ;
415 [label=<gillcolor &le; 11.5<br/>entropy = 0.863<br/>samples = 7<br/>value = [5, 2]<br/>class = P>, fillcolor="#e5813999"] ;
414 -> 415 ;
416 [label=<entropy = 0.0<br/>samples = 3<br/>value = [3, 0]<br/>class = P>, fillcolor="#e58139ff"] ;
415 -> 416 ;
417 [label=<capsurface &le; 21.0<br/>entropy = 1.0<br/>samples = 4<br/>value = [2, 2]<br/>class = P>, fillcolor="#e5813900"] ;
415 -> 417 ;
418 [label=<population &le; 15.5<br/>entropy = 1.0<br/>samples = 2<br/>value = [1, 1]<br/>class = P>, fillcolor="#e5813900"] ;
417 -> 418 ;
419 [label=<entropy = 0.0<br/>samples = 1<br/>value = [1, 0]<br/>class = P>, fillcolor="#e58139ff"] ;
418 -> 419 ;
420 [label=<entropy = 0.0<br/>samples = 1<br/>value = [0, 1]<br/>class = NP>, fillcolor="#399de5ff"] ;
418 -> 420 ;
421 [label=<population &le; 15.5<br/>entropy = 1.0<br/>samples = 2<br/>value = [1, 1]<br/>class = P>, fillcolor="#e5813900"] ;
417 -> 421 ;
422 [label=<entropy = 0.0<br/>samples = 1<br/>value = [0, 1]<br/>class = NP>, fillcolor="#399de5ff"] ;
421 -> 422 ;
423 [label=<entropy = 0.0<br/>samples = 1<br/>value = [1, 0]<br/>class = P>, fillcolor="#e58139ff"] ;
421 -> 423 ;
424 [label=<entropy = 0.0<br/>samples = 4<br/>value = [4, 0]<br/>class = P>, fillcolor="#e58139ff"] ;
414 -> 424 ;
425 [label=<entropy = 0.0<br/>samples = 9<br/>value = [9, 0]<br/>class = P>, fillcolor="#e58139ff"] ;
413 -> 425 ;
426 [label=<capshape &le; 3.0<br/>entropy = 0.436<br/>samples = 1100<br/>value = [1001, 99]<br/>class = P>, fillcolor="#e58139e6"] ;
366 -> 426 ;
427 [label=<gillcolor &le; 11.5<br/>entropy = 0.172<br/>samples = 39<br/>value = [38, 1]<br/>class = P>, fillcolor="#e58139f8"] ;
426 -> 427 ;
428 [label=<capsurface &le; 21.0<br/>entropy = 0.337<br/>samples = 16<br/>value = [15, 1]<br/>class = P>, fillcolor="#e58139ee"] ;
427 -> 428 ;
429 [label=<population &le; 15.5<br/>entropy = 0.592<br/>samples = 7<br/>value = [6, 1]<br/>class = P>, fillcolor="#e58139d4"] ;
428 -> 429 ;
430 [label=<habitat &le; 9.0<br/>entropy = 0.918<br/>samples = 3<br/>value = [2, 1]<br/>class = P>, fillcolor="#e581397f"] ;
429 -> 430 ;
431 [label=<entropy = 0.0<br/>samples = 1<br/>value = [1, 0]<br/>class = P>, fillcolor="#e58139ff"] ;
430 -> 431 ;
432 [label=<capcolor &le; 23.0<br/>entropy = 1.0<br/>samples = 2<br/>value = [1, 1]<br/>class = P>, fillcolor="#e5813900"] ;
430 -> 432 ;
433 [label=<entropy = 0.0<br/>samples = 1<br/>value = [0, 1]<br/>class = NP>, fillcolor="#399de5ff"] ;
432 -> 433 ;
434 [label=<entropy = 0.0<br/>samples = 1<br/>value = [1, 0]<br/>class = P>, fillcolor="#e58139ff"] ;
432 -> 434 ;
435 [label=<entropy = 0.0<br/>samples = 4<br/>value = [4, 0]<br/>class = P>, fillcolor="#e58139ff"] ;
429 -> 435 ;
436 [label=<entropy = 0.0<br/>samples = 9<br/>value = [9, 0]<br/>class = P>, fillcolor="#e58139ff"] ;
428 -> 436 ;
437 [label=<entropy = 0.0<br/>samples = 23<br/>value = [23, 0]<br/>class = P>, fillcolor="#e58139ff"] ;
427 -> 437 ;
438 [label=<odor &le; 12.0<br/>entropy = 0.444<br/>samples = 1061<br/>value = [963, 98]<br/>class = P>, fillcolor="#e58139e5"] ;
426 -> 438 ;
439 [label=<sporeprintcolor &le; 11.5<br/>entropy = 0.619<br/>samples = 39<br/>value = [33, 6]<br/>class = P>, fillcolor="#e58139d1"] ;
438 -> 439 ;
440 [label=<capsurface &le; 21.0<br/>entropy = 0.863<br/>samples = 14<br/>value = [10, 4]<br/>class = P>, fillcolor="#e5813999"] ;
439 -> 440 ;
441 [label=<gillcolor &le; 11.5<br/>entropy = 0.985<br/>samples = 7<br/>value = [4, 3]<br/>class = P>, fillcolor="#e5813940"] ;
440 -> 441 ;
442 [label=<entropy = 0.0<br/>samples = 2<br/>value = [2, 0]<br/>class = P>, fillcolor="#e58139ff"] ;
441 -> 442 ;
443 [label=<habitat &le; 9.0<br/>entropy = 0.971<br/>samples = 5<br/>value = [2, 3]<br/>class = NP>, fillcolor="#399de555"] ;
441 -> 443 ;
444 [label=<entropy = 0.0<br/>samples = 2<br/>value = [0, 2]<br/>class = NP>, fillcolor="#399de5ff"] ;
443 -> 444 ;
445 [label=<population &le; 15.5<br/>entropy = 0.918<br/>samples = 3<br/>value = [2, 1]<br/>class = P>, fillcolor="#e581397f"] ;
443 -> 445 ;
446 [label=<entropy = 0.0<br/>samples = 1<br/>value = [0, 1]<br/>class = NP>, fillcolor="#399de5ff"] ;
445 -> 446 ;
447 [label=<entropy = 0.0<br/>samples = 2<br/>value = [2, 0]<br/>class = P>, fillcolor="#e58139ff"] ;
445 -> 447 ;
448 [label=<gillcolor &le; 11.5<br/>entropy = 0.592<br/>samples = 7<br/>value = [6, 1]<br/>class = P>, fillcolor="#e58139d4"] ;
440 -> 448 ;
449 [label=<capcolor &le; 23.0<br/>entropy = 1.0<br/>samples = 2<br/>value = [1, 1]<br/>class = P>, fillcolor="#e5813900"] ;
448 -> 449 ;
450 [label=<entropy = 0.0<br/>samples = 1<br/>value = [0, 1]<br/>class = NP>, fillcolor="#399de5ff"] ;
449 -> 450 ;
451 [label=<entropy = 0.0<br/>samples = 1<br/>value = [1, 0]<br/>class = P>, fillcolor="#e58139ff"] ;
449 -> 451 ;
452 [label=<entropy = 0.0<br/>samples = 5<br/>value = [5, 0]<br/>class = P>, fillcolor="#e58139ff"] ;
448 -> 452 ;
453 [label=<gillcolor &le; 17.5<br/>entropy = 0.402<br/>samples = 25<br/>value = [23, 2]<br/>class = P>, fillcolor="#e58139e9"] ;
439 -> 453 ;
454 [label=<entropy = 0.0<br/>samples = 14<br/>value = [14, 0]<br/>class = P>, fillcolor="#e58139ff"] ;
453 -> 454 ;
455 [label=<habitat &le; 9.0<br/>entropy = 0.684<br/>samples = 11<br/>value = [9, 2]<br/>class = P>, fillcolor="#e58139c6"] ;
453 -> 455 ;
456 [label=<entropy = 0.0<br/>samples = 5<br/>value = [5, 0]<br/>class = P>, fillcolor="#e58139ff"] ;
455 -> 456 ;
457 [label=<population &le; 15.5<br/>entropy = 0.918<br/>samples = 6<br/>value = [4, 2]<br/>class = P>, fillcolor="#e581397f"] ;
455 -> 457 ;
458 [label=<capcolor &le; 23.0<br/>entropy = 0.811<br/>samples = 4<br/>value = [3, 1]<br/>class = P>, fillcolor="#e58139aa"] ;
457 -> 458 ;
459 [label=<capsurface &le; 21.0<br/>entropy = 1.0<br/>samples = 2<br/>value = [1, 1]<br/>class = P>, fillcolor="#e5813900"] ;
458 -> 459 ;
460 [label=<entropy = 0.0<br/>samples = 1<br/>value = [1, 0]<br/>class = P>, fillcolor="#e58139ff"] ;
459 -> 460 ;
461 [label=<entropy = 0.0<br/>samples = 1<br/>value = [0, 1]<br/>class = NP>, fillcolor="#399de5ff"] ;
459 -> 461 ;
462 [label=<entropy = 0.0<br/>samples = 2<br/>value = [2, 0]<br/>class = P>, fillcolor="#e58139ff"] ;
458 -> 462 ;
463 [label=<capcolor &le; 23.0<br/>entropy = 1.0<br/>samples = 2<br/>value = [1, 1]<br/>class = P>, fillcolor="#e5813900"] ;
457 -> 463 ;
464 [label=<entropy = 0.0<br/>samples = 1<br/>value = [1, 0]<br/>class = P>, fillcolor="#e58139ff"] ;
463 -> 464 ;
465 [label=<entropy = 0.0<br/>samples = 1<br/>value = [0, 1]<br/>class = NP>, fillcolor="#399de5ff"] ;
463 -> 465 ;
466 [label=<capsurface &le; 11.5<br/>entropy = 0.437<br/>samples = 1022<br/>value = [930, 92]<br/>class = P>, fillcolor="#e58139e6"] ;
438 -> 466 ;
467 [label=<stalksurfaceabovering &le; 11.5<br/>entropy = 0.476<br/>samples = 518<br/>value = [465, 53]<br/>class = P>, fillcolor="#e58139e2"] ;
466 -> 467 ;
468 [label=<sporeprintcolor &le; 11.5<br/>entropy = 0.645<br/>samples = 73<br/>value = [61, 12]<br/>class = P>, fillcolor="#e58139cd"] ;
467 -> 468 ;
469 [label=<gillcolor &le; 8.5<br/>entropy = 0.842<br/>samples = 37<br/>value = [27, 10]<br/>class = P>, fillcolor="#e58139a1"] ;
468 -> 469 ;
470 [label=<capcolor &le; 9.5<br/>entropy = 0.971<br/>samples = 5<br/>value = [2, 3]<br/>class = NP>, fillcolor="#399de555"] ;
469 -> 470 ;
471 [label=<entropy = 0.0<br/>samples = 1<br/>value = [0, 1]<br/>class = NP>, fillcolor="#399de5ff"] ;
470 -> 471 ;
472 [label=<capshape &le; 14.0<br/>entropy = 1.0<br/>samples = 4<br/>value = [2, 2]<br/>class = P>, fillcolor="#e5813900"] ;
470 -> 472 ;
473 [label=<entropy = 0.0<br/>samples = 1<br/>value = [1, 0]<br/>class = P>, fillcolor="#e58139ff"] ;
472 -> 473 ;
474 [label=<capcolor &le; 17.5<br/>entropy = 0.918<br/>samples = 3<br/>value = [1, 2]<br/>class = NP>, fillcolor="#399de57f"] ;
472 -> 474 ;
475 [label=<stalksurfacebelowring &le; 11.5<br/>entropy = 1.0<br/>samples = 2<br/>value = [1, 1]<br/>class = P>, fillcolor="#e5813900"] ;
474 -> 475 ;
476 [label=<entropy = 0.0<br/>samples = 1<br/>value = [1, 0]<br/>class = P>, fillcolor="#e58139ff"] ;
475 -> 476 ;
477 [label=<entropy = 0.0<br/>samples = 1<br/>value = [0, 1]<br/>class = NP>, fillcolor="#399de5ff"] ;
475 -> 477 ;
478 [label=<entropy = 0.0<br/>samples = 1<br/>value = [0, 1]<br/>class = NP>, fillcolor="#399de5ff"] ;
474 -> 478 ;
479 [label=<gillcolor &le; 14.0<br/>entropy = 0.758<br/>samples = 32<br/>value = [25, 7]<br/>class = P>, fillcolor="#e58139b8"] ;
469 -> 479 ;
480 [label=<gillcolor &le; 11.5<br/>entropy = 0.828<br/>samples = 23<br/>value = [17, 6]<br/>class = P>, fillcolor="#e58139a5"] ;
479 -> 480 ;
481 [label=<capcolor &le; 9.5<br/>entropy = 0.722<br/>samples = 15<br/>value = [12, 3]<br/>class = P>, fillcolor="#e58139bf"] ;
480 -> 481 ;
482 [label=<stalksurfacebelowring &le; 11.5<br/>entropy = 0.918<br/>samples = 3<br/>value = [2, 1]<br/>class = P>, fillcolor="#e581397f"] ;
481 -> 482 ;
483 [label=<entropy = 0.0<br/>samples = 1<br/>value = [1, 0]<br/>class = P>, fillcolor="#e58139ff"] ;
482 -> 483 ;
484 [label=<population &le; 9.0<br/>entropy = 1.0<br/>samples = 2<br/>value = [1, 1]<br/>class = P>, fillcolor="#e5813900"] ;
482 -> 484 ;
485 [label=<entropy = 0.0<br/>samples = 1<br/>value = [0, 1]<br/>class = NP>, fillcolor="#399de5ff"] ;
484 -> 485 ;
486 [label=<entropy = 0.0<br/>samples = 1<br/>value = [1, 0]<br/>class = P>, fillcolor="#e58139ff"] ;
484 -> 486 ;
487 [label=<stalksurfacebelowring &le; 11.5<br/>entropy = 0.65<br/>samples = 12<br/>value = [10, 2]<br/>class = P>, fillcolor="#e58139cc"] ;
481 -> 487 ;
488 [label=<capshape &le; 14.0<br/>entropy = 0.722<br/>samples = 5<br/>value = [4, 1]<br/>class = P>, fillcolor="#e58139bf"] ;
487 -> 488 ;
489 [label=<entropy = 0.0<br/>samples = 1<br/>value = [0, 1]<br/>class = NP>, fillcolor="#399de5ff"] ;
488 -> 489 ;
490 [label=<entropy = 0.0<br/>samples = 4<br/>value = [4, 0]<br/>class = P>, fillcolor="#e58139ff"] ;
488 -> 490 ;
491 [label=<population &le; 9.0<br/>entropy = 0.592<br/>samples = 7<br/>value = [6, 1]<br/>class = P>, fillcolor="#e58139d4"] ;
487 -> 491 ;
492 [label=<entropy = 0.0<br/>samples = 4<br/>value = [4, 0]<br/>class = P>, fillcolor="#e58139ff"] ;
491 -> 492 ;
493 [label=<capshape &le; 14.0<br/>entropy = 0.918<br/>samples = 3<br/>value = [2, 1]<br/>class = P>, fillcolor="#e581397f"] ;
491 -> 493 ;
494 [label=<entropy = 0.0<br/>samples = 2<br/>value = [2, 0]<br/>class = P>, fillcolor="#e58139ff"] ;
493 -> 494 ;
495 [label=<entropy = 0.0<br/>samples = 1<br/>value = [0, 1]<br/>class = NP>, fillcolor="#399de5ff"] ;
493 -> 495 ;
496 [label=<population &le; 9.0<br/>entropy = 0.954<br/>samples = 8<br/>value = [5, 3]<br/>class = P>, fillcolor="#e5813966"] ;
480 -> 496 ;
497 [label=<capshape &le; 14.0<br/>entropy = 0.918<br/>samples = 3<br/>value = [1, 2]<br/>class = NP>, fillcolor="#399de57f"] ;
496 -> 497 ;
498 [label=<entropy = 0.0<br/>samples = 1<br/>value = [0, 1]<br/>class = NP>, fillcolor="#399de5ff"] ;
497 -> 498 ;
499 [label=<capcolor &le; 9.5<br/>entropy = 1.0<br/>samples = 2<br/>value = [1, 1]<br/>class = P>, fillcolor="#e5813900"] ;
497 -> 499 ;
500 [label=<entropy = 0.0<br/>samples = 1<br/>value = [1, 0]<br/>class = P>, fillcolor="#e58139ff"] ;
499 -> 500 ;
501 [label=<entropy = 0.0<br/>samples = 1<br/>value = [0, 1]<br/>class = NP>, fillcolor="#399de5ff"] ;
499 -> 501 ;
502 [label=<capshape &le; 14.0<br/>entropy = 0.722<br/>samples = 5<br/>value = [4, 1]<br/>class = P>, fillcolor="#e58139bf"] ;
496 -> 502 ;
503 [label=<entropy = 0.0<br/>samples = 2<br/>value = [2, 0]<br/>class = P>, fillcolor="#e58139ff"] ;
502 -> 503 ;
504 [label=<capcolor &le; 17.5<br/>entropy = 0.918<br/>samples = 3<br/>value = [2, 1]<br/>class = P>, fillcolor="#e581397f"] ;
502 -> 504 ;
505 [label=<entropy = 0.0<br/>samples = 1<br/>value = [1, 0]<br/>class = P>, fillcolor="#e58139ff"] ;
504 -> 505 ;
506 [label=<stalksurfacebelowring &le; 11.5<br/>entropy = 1.0<br/>samples = 2<br/>value = [1, 1]<br/>class = P>, fillcolor="#e5813900"] ;
504 -> 506 ;
507 [label=<entropy = 0.0<br/>samples = 1<br/>value = [1, 0]<br/>class = P>, fillcolor="#e58139ff"] ;
506 -> 507 ;
508 [label=<entropy = 0.0<br/>samples = 1<br/>value = [0, 1]<br/>class = NP>, fillcolor="#399de5ff"] ;
506 -> 508 ;
509 [label=<capshape &le; 14.0<br/>entropy = 0.503<br/>samples = 9<br/>value = [8, 1]<br/>class = P>, fillcolor="#e58139df"] ;
479 -> 509 ;
510 [label=<entropy = 0.0<br/>samples = 7<br/>value = [7, 0]<br/>class = P>, fillcolor="#e58139ff"] ;
509 -> 510 ;
511 [label=<capcolor &le; 17.5<br/>entropy = 1.0<br/>samples = 2<br/>value = [1, 1]<br/>class = P>, fillcolor="#e5813900"] ;
509 -> 511 ;
512 [label=<entropy = 0.0<br/>samples = 1<br/>value = [1, 0]<br/>class = P>, fillcolor="#e58139ff"] ;
511 -> 512 ;
513 [label=<entropy = 0.0<br/>samples = 1<br/>value = [0, 1]<br/>class = NP>, fillcolor="#399de5ff"] ;
511 -> 513 ;
514 [label=<population &le; 9.0<br/>entropy = 0.31<br/>samples = 36<br/>value = [34, 2]<br/>class = P>, fillcolor="#e58139f0"] ;
468 -> 514 ;
515 [label=<entropy = 0.0<br/>samples = 18<br/>value = [18, 0]<br/>class = P>, fillcolor="#e58139ff"] ;
514 -> 515 ;
516 [label=<stalksurfacebelowring &le; 11.5<br/>entropy = 0.503<br/>samples = 18<br/>value = [16, 2]<br/>class = P>, fillcolor="#e58139df"] ;
514 -> 516 ;
517 [label=<entropy = 0.0<br/>samples = 6<br/>value = [6, 0]<br/>class = P>, fillcolor="#e58139ff"] ;
516 -> 517 ;
518 [label=<capcolor &le; 17.5<br/>entropy = 0.65<br/>samples = 12<br/>value = [10, 2]<br/>class = P>, fillcolor="#e58139cc"] ;
516 -> 518 ;
519 [label=<gillcolor &le; 14.0<br/>entropy = 0.469<br/>samples = 10<br/>value = [9, 1]<br/>class = P>, fillcolor="#e58139e3"] ;
518 -> 519 ;
520 [label=<entropy = 0.0<br/>samples = 7<br/>value = [7, 0]<br/>class = P>, fillcolor="#e58139ff"] ;
519 -> 520 ;
521 [label=<capshape &le; 14.0<br/>entropy = 0.918<br/>samples = 3<br/>value = [2, 1]<br/>class = P>, fillcolor="#e581397f"] ;
519 -> 521 ;
522 [label=<capcolor &le; 9.5<br/>entropy = 1.0<br/>samples = 2<br/>value = [1, 1]<br/>class = P>, fillcolor="#e5813900"] ;
521 -> 522 ;
523 [label=<entropy = 0.0<br/>samples = 1<br/>value = [0, 1]<br/>class = NP>, fillcolor="#399de5ff"] ;
522 -> 523 ;
524 [label=<entropy = 0.0<br/>samples = 1<br/>value = [1, 0]<br/>class = P>, fillcolor="#e58139ff"] ;
522 -> 524 ;
525 [label=<entropy = 0.0<br/>samples = 1<br/>value = [1, 0]<br/>class = P>, fillcolor="#e58139ff"] ;
521 -> 525 ;
526 [label=<gillcolor &le; 8.5<br/>entropy = 1.0<br/>samples = 2<br/>value = [1, 1]<br/>class = P>, fillcolor="#e5813900"] ;
518 -> 526 ;
527 [label=<entropy = 0.0<br/>samples = 1<br/>value = [1, 0]<br/>class = P>, fillcolor="#e58139ff"] ;
526 -> 527 ;
528 [label=<entropy = 0.0<br/>samples = 1<br/>value = [0, 1]<br/>class = NP>, fillcolor="#399de5ff"] ;
526 -> 528 ;
529 [label=<population &le; 22.5<br/>entropy = 0.444<br/>samples = 445<br/>value = [404, 41]<br/>class = P>, fillcolor="#e58139e5"] ;
467 -> 529 ;
530 [label=<gillcolor &le; 21.0<br/>entropy = 0.384<br/>samples = 254<br/>value = [235, 19]<br/>class = P>, fillcolor="#e58139ea"] ;
529 -> 530 ;
531 [label=<stalkcolorabovering &le; 10.5<br/>entropy = 0.426<br/>samples = 219<br/>value = [200, 19]<br/>class = P>, fillcolor="#e58139e7"] ;
530 -> 531 ;
532 [label=<stalkcolorbelowring &le; 10.5<br/>entropy = 0.323<br/>samples = 51<br/>value = [48, 3]<br/>class = P>, fillcolor="#e58139ef"] ;
531 -> 532 ;
533 [label=<entropy = 0.0<br/>samples = 17<br/>value = [17, 0]<br/>class = P>, fillcolor="#e58139ff"] ;
532 -> 533 ;
534 [label=<stalkcolorbelowring &le; 18.5<br/>entropy = 0.431<br/>samples = 34<br/>value = [31, 3]<br/>class = P>, fillcolor="#e58139e6"] ;
532 -> 534 ;
535 [label=<capcolor &le; 5.0<br/>entropy = 0.61<br/>samples = 20<br/>value = [17, 3]<br/>class = P>, fillcolor="#e58139d2"] ;
534 -> 535 ;
536 [label=<capshape &le; 14.0<br/>entropy = 0.811<br/>samples = 8<br/>value = [6, 2]<br/>class = P>, fillcolor="#e58139aa"] ;
535 -> 536 ;
537 [label=<gillcolor &le; 17.5<br/>entropy = 0.971<br/>samples = 5<br/>value = [3, 2]<br/>class = P>, fillcolor="#e5813955"] ;
536 -> 537 ;
538 [label=<sporeprintcolor &le; 11.5<br/>entropy = 0.811<br/>samples = 4<br/>value = [3, 1]<br/>class = P>, fillcolor="#e58139aa"] ;
537 -> 538 ;
539 [label=<gillcolor &le; 14.0<br/>entropy = 1.0<br/>samples = 2<br/>value = [1, 1]<br/>class = P>, fillcolor="#e5813900"] ;
538 -> 539 ;
540 [label=<entropy = 0.0<br/>samples = 1<br/>value = [0, 1]<br/>class = NP>, fillcolor="#399de5ff"] ;
539 -> 540 ;
541 [label=<entropy = 0.0<br/>samples = 1<br/>value = [1, 0]<br/>class = P>, fillcolor="#e58139ff"] ;
539 -> 541 ;
542 [label=<entropy = 0.0<br/>samples = 2<br/>value = [2, 0]<br/>class = P>, fillcolor="#e58139ff"] ;
538 -> 542 ;
543 [label=<entropy = 0.0<br/>samples = 1<br/>value = [0, 1]<br/>class = NP>, fillcolor="#399de5ff"] ;
537 -> 543 ;
544 [label=<entropy = 0.0<br/>samples = 3<br/>value = [3, 0]<br/>class = P>, fillcolor="#e58139ff"] ;
536 -> 544 ;
545 [label=<capcolor &le; 9.5<br/>entropy = 0.414<br/>samples = 12<br/>value = [11, 1]<br/>class = P>, fillcolor="#e58139e8"] ;
535 -> 545 ;
546 [label=<entropy = 0.0<br/>samples = 7<br/>value = [7, 0]<br/>class = P>, fillcolor="#e58139ff"] ;
545 -> 546 ;
547 [label=<capshape &le; 14.0<br/>entropy = 0.722<br/>samples = 5<br/>value = [4, 1]<br/>class = P>, fillcolor="#e58139bf"] ;
545 -> 547 ;
548 [label=<entropy = 0.0<br/>samples = 3<br/>value = [3, 0]<br/>class = P>, fillcolor="#e58139ff"] ;
547 -> 548 ;
549 [label=<gillcolor &le; 14.0<br/>entropy = 1.0<br/>samples = 2<br/>value = [1, 1]<br/>class = P>, fillcolor="#e5813900"] ;
547 -> 549 ;
550 [label=<entropy = 0.0<br/>samples = 1<br/>value = [1, 0]<br/>class = P>, fillcolor="#e58139ff"] ;
549 -> 550 ;
551 [label=<entropy = 0.0<br/>samples = 1<br/>value = [0, 1]<br/>class = NP>, fillcolor="#399de5ff"] ;
549 -> 551 ;
552 [label=<entropy = 0.0<br/>samples = 14<br/>value = [14, 0]<br/>class = P>, fillcolor="#e58139ff"] ;
534 -> 552 ;
553 [label=<gillcolor &le; 17.5<br/>entropy = 0.454<br/>samples = 168<br/>value = [152, 16]<br/>class = P>, fillcolor="#e58139e4"] ;
531 -> 553 ;
554 [label=<capcolor &le; 5.0<br/>entropy = 0.424<br/>samples = 139<br/>value = [127, 12]<br/>class = P>, fillcolor="#e58139e7"] ;
553 -> 554 ;
555 [label=<stalkcolorabovering &le; 18.5<br/>entropy = 0.267<br/>samples = 22<br/>value = [21, 1]<br/>class = P>, fillcolor="#e58139f3"] ;
554 -> 555 ;
556 [label=<gillcolor &le; 14.0<br/>entropy = 0.469<br/>samples = 10<br/>value = [9, 1]<br/>class = P>, fillcolor="#e58139e3"] ;
555 -> 556 ;
557 [label=<sporeprintcolor &le; 11.5<br/>entropy = 0.65<br/>samples = 6<br/>value = [5, 1]<br/>class = P>, fillcolor="#e58139cc"] ;
556 -> 557 ;
558 [label=<entropy = 0.0<br/>samples = 3<br/>value = [3, 0]<br/>class = P>, fillcolor="#e58139ff"] ;
557 -> 558 ;
559 [label=<capshape &le; 14.0<br/>entropy = 0.918<br/>samples = 3<br/>value = [2, 1]<br/>class = P>, fillcolor="#e581397f"] ;
557 -> 559 ;
560 [label=<entropy = 0.0<br/>samples = 1<br/>value = [1, 0]<br/>class = P>, fillcolor="#e58139ff"] ;
559 -> 560 ;
561 [label=<stalkcolorbelowring &le; 10.5<br/>entropy = 1.0<br/>samples = 2<br/>value = [1, 1]<br/>class = P>, fillcolor="#e5813900"] ;
559 -> 561 ;
562 [label=<entropy = 0.0<br/>samples = 1<br/>value = [1, 0]<br/>class = P>, fillcolor="#e58139ff"] ;
561 -> 562 ;
563 [label=<entropy = 0.0<br/>samples = 1<br/>value = [0, 1]<br/>class = NP>, fillcolor="#399de5ff"] ;
561 -> 563 ;
564 [label=<entropy = 0.0<br/>samples = 4<br/>value = [4, 0]<br/>class = P>, fillcolor="#e58139ff"] ;
556 -> 564 ;
565 [label=<entropy = 0.0<br/>samples = 12<br/>value = [12, 0]<br/>class = P>, fillcolor="#e58139ff"] ;
555 -> 565 ;
566 [label=<stalkroot &le; 2.5<br/>entropy = 0.45<br/>samples = 117<br/>value = [106, 11]<br/>class = P>, fillcolor="#e58139e5"] ;
554 -> 566 ;
567 [label=<capcolor &le; 9.5<br/>entropy = 0.533<br/>samples = 33<br/>value = [29, 4]<br/>class = P>, fillcolor="#e58139dc"] ;
566 -> 567 ;
568 [label=<gillcolor &le; 14.0<br/>entropy = 0.31<br/>samples = 18<br/>value = [17, 1]<br/>class = P>, fillcolor="#e58139f0"] ;
567 -> 568 ;
569 [label=<entropy = 0.0<br/>samples = 10<br/>value = [10, 0]<br/>class = P>, fillcolor="#e58139ff"] ;
568 -> 569 ;
570 [label=<capshape &le; 14.0<br/>entropy = 0.544<br/>samples = 8<br/>value = [7, 1]<br/>class = P>, fillcolor="#e58139db"] ;
568 -> 570 ;
571 [label=<stalkcolorabovering &le; 18.5<br/>entropy = 0.811<br/>samples = 4<br/>value = [3, 1]<br/>class = P>, fillcolor="#e58139aa"] ;
570 -> 571 ;
572 [label=<entropy = 0.0<br/>samples = 2<br/>value = [2, 0]<br/>class = P>, fillcolor="#e58139ff"] ;
571 -> 572 ;
573 [label=<sporeprintcolor &le; 11.5<br/>entropy = 1.0<br/>samples = 2<br/>value = [1, 1]<br/>class = P>, fillcolor="#e5813900"] ;
571 -> 573 ;
574 [label=<entropy = 0.0<br/>samples = 1<br/>value = [0, 1]<br/>class = NP>, fillcolor="#399de5ff"] ;
573 -> 574 ;
575 [label=<entropy = 0.0<br/>samples = 1<br/>value = [1, 0]<br/>class = P>, fillcolor="#e58139ff"] ;
573 -> 575 ;
576 [label=<entropy = 0.0<br/>samples = 4<br/>value = [4, 0]<br/>class = P>, fillcolor="#e58139ff"] ;
570 -> 576 ;
577 [label=<capshape &le; 14.0<br/>entropy = 0.722<br/>samples = 15<br/>value = [12, 3]<br/>class = P>, fillcolor="#e58139bf"] ;
567 -> 577 ;
578 [label=<stalkcolorabovering &le; 18.5<br/>entropy = 0.503<br/>samples = 9<br/>value = [8, 1]<br/>class = P>, fillcolor="#e58139df"] ;
577 -> 578 ;
579 [label=<entropy = 0.0<br/>samples = 5<br/>value = [5, 0]<br/>class = P>, fillcolor="#e58139ff"] ;
578 -> 579 ;
580 [label=<gillcolor &le; 14.0<br/>entropy = 0.811<br/>samples = 4<br/>value = [3, 1]<br/>class = P>, fillcolor="#e58139aa"] ;
578 -> 580 ;
581 [label=<stalkcolorbelowring &le; 18.5<br/>entropy = 1.0<br/>samples = 2<br/>value = [1, 1]<br/>class = P>, fillcolor="#e5813900"] ;
580 -> 581 ;
582 [label=<entropy = 0.0<br/>samples = 1<br/>value = [1, 0]<br/>class = P>, fillcolor="#e58139ff"] ;
581 -> 582 ;
583 [label=<entropy = 0.0<br/>samples = 1<br/>value = [0, 1]<br/>class = NP>, fillcolor="#399de5ff"] ;
581 -> 583 ;
584 [label=<entropy = 0.0<br/>samples = 2<br/>value = [2, 0]<br/>class = P>, fillcolor="#e58139ff"] ;
580 -> 584 ;
585 [label=<sporeprintcolor &le; 11.5<br/>entropy = 0.918<br/>samples = 6<br/>value = [4, 2]<br/>class = P>, fillcolor="#e581397f"] ;
577 -> 585 ;
586 [label=<stalkcolorbelowring &le; 10.5<br/>entropy = 0.722<br/>samples = 5<br/>value = [4, 1]<br/>class = P>, fillcolor="#e58139bf"] ;
585 -> 586 ;
587 [label=<entropy = 0.0<br/>samples = 1<br/>value = [0, 1]<br/>class = NP>, fillcolor="#399de5ff"] ;
586 -> 587 ;
588 [label=<entropy = 0.0<br/>samples = 4<br/>value = [4, 0]<br/>class = P>, fillcolor="#e58139ff"] ;
586 -> 588 ;
589 [label=<entropy = 0.0<br/>samples = 1<br/>value = [0, 1]<br/>class = NP>, fillcolor="#399de5ff"] ;
585 -> 589 ;
590 [label=<capshape &le; 14.0<br/>entropy = 0.414<br/>samples = 84<br/>value = [77, 7]<br/>class = P>, fillcolor="#e58139e8"] ;
566 -> 590 ;
591 [label=<sporeprintcolor &le; 11.5<br/>entropy = 0.496<br/>samples = 46<br/>value = [41, 5]<br/>class = P>, fillcolor="#e58139e0"] ;
590 -> 591 ;
592 [label=<gillcolor &le; 11.5<br/>entropy = 0.629<br/>samples = 19<br/>value = [16, 3]<br/>class = P>, fillcolor="#e58139cf"] ;
591 -> 592 ;
593 [label=<population &le; 9.0<br/>entropy = 0.863<br/>samples = 7<br/>value = [5, 2]<br/>class = P>, fillcolor="#e5813999"] ;
592 -> 593 ;
594 [label=<entropy = 0.0<br/>samples = 4<br/>value = [4, 0]<br/>class = P>, fillcolor="#e58139ff"] ;
593 -> 594 ;
595 [label=<gillcolor &le; 8.5<br/>entropy = 0.918<br/>samples = 3<br/>value = [1, 2]<br/>class = NP>, fillcolor="#399de57f"] ;
593 -> 595 ;
596 [label=<entropy = 0.0<br/>samples = 1<br/>value = [1, 0]<br/>class = P>, fillcolor="#e58139ff"] ;
595 -> 596 ;
597 [label=<entropy = 0.0<br/>samples = 2<br/>value = [0, 2]<br/>class = NP>, fillcolor="#399de5ff"] ;
595 -> 597 ;
598 [label=<capcolor &le; 17.5<br/>entropy = 0.414<br/>samples = 12<br/>value = [11, 1]<br/>class = P>, fillcolor="#e58139e8"] ;
592 -> 598 ;
599 [label=<entropy = 0.0<br/>samples = 8<br/>value = [8, 0]<br/>class = P>, fillcolor="#e58139ff"] ;
598 -> 599 ;
600 [label=<stalksurfacebelowring &le; 11.5<br/>entropy = 0.811<br/>samples = 4<br/>value = [3, 1]<br/>class = P>, fillcolor="#e58139aa"] ;
598 -> 600 ;
601 [label=<entropy = 0.0<br/>samples = 2<br/>value = [2, 0]<br/>class = P>, fillcolor="#e58139ff"] ;
600 -> 601 ;
602 [label=<population &le; 9.0<br/>entropy = 1.0<br/>samples = 2<br/>value = [1, 1]<br/>class = P>, fillcolor="#e5813900"] ;
600 -> 602 ;
603 [label=<entropy = 0.0<br/>samples = 1<br/>value = [0, 1]<br/>class = NP>, fillcolor="#399de5ff"] ;
602 -> 603 ;
604 [label=<entropy = 0.0<br/>samples = 1<br/>value = [1, 0]<br/>class = P>, fillcolor="#e58139ff"] ;
602 -> 604 ;
605 [label=<population &le; 9.0<br/>entropy = 0.381<br/>samples = 27<br/>value = [25, 2]<br/>class = P>, fillcolor="#e58139eb"] ;
591 -> 605 ;
606 [label=<stalksurfacebelowring &le; 11.5<br/>entropy = 0.619<br/>samples = 13<br/>value = [11, 2]<br/>class = P>, fillcolor="#e58139d1"] ;
605 -> 606 ;
607 [label=<capcolor &le; 17.5<br/>entropy = 0.764<br/>samples = 9<br/>value = [7, 2]<br/>class = P>, fillcolor="#e58139b6"] ;
606 -> 607 ;
608 [label=<capcolor &le; 9.5<br/>entropy = 0.918<br/>samples = 6<br/>value = [4, 2]<br/>class = P>, fillcolor="#e581397f"] ;
607 -> 608 ;
609 [label=<entropy = 0.0<br/>samples = 2<br/>value = [2, 0]<br/>class = P>, fillcolor="#e58139ff"] ;
608 -> 609 ;
610 [label=<gillcolor &le; 8.5<br/>entropy = 1.0<br/>samples = 4<br/>value = [2, 2]<br/>class = P>, fillcolor="#e5813900"] ;
608 -> 610 ;
611 [label=<entropy = 0.0<br/>samples = 1<br/>value = [0, 1]<br/>class = NP>, fillcolor="#399de5ff"] ;
610 -> 611 ;
612 [label=<gillcolor &le; 11.5<br/>entropy = 0.918<br/>samples = 3<br/>value = [2, 1]<br/>class = P>, fillcolor="#e581397f"] ;
610 -> 612 ;
613 [label=<entropy = 0.0<br/>samples = 1<br/>value = [1, 0]<br/>class = P>, fillcolor="#e58139ff"] ;
612 -> 613 ;
614 [label=<gillcolor &le; 14.0<br/>entropy = 1.0<br/>samples = 2<br/>value = [1, 1]<br/>class = P>, fillcolor="#e5813900"] ;
612 -> 614 ;
615 [label=<entropy = 0.0<br/>samples = 1<br/>value = [0, 1]<br/>class = NP>, fillcolor="#399de5ff"] ;
614 -> 615 ;
616 [label=<entropy = 0.0<br/>samples = 1<br/>value = [1, 0]<br/>class = P>, fillcolor="#e58139ff"] ;
614 -> 616 ;
617 [label=<entropy = 0.0<br/>samples = 3<br/>value = [3, 0]<br/>class = P>, fillcolor="#e58139ff"] ;
607 -> 617 ;
618 [label=<entropy = 0.0<br/>samples = 4<br/>value = [4, 0]<br/>class = P>, fillcolor="#e58139ff"] ;
606 -> 618 ;
619 [label=<entropy = 0.0<br/>samples = 14<br/>value = [14, 0]<br/>class = P>, fillcolor="#e58139ff"] ;
605 -> 619 ;
620 [label=<capcolor &le; 9.5<br/>entropy = 0.297<br/>samples = 38<br/>value = [36, 2]<br/>class = P>, fillcolor="#e58139f1"] ;
590 -> 620 ;
621 [label=<sporeprintcolor &le; 11.5<br/>entropy = 0.544<br/>samples = 16<br/>value = [14, 2]<br/>class = P>, fillcolor="#e58139db"] ;
620 -> 621 ;
622 [label=<entropy = 0.0<br/>samples = 8<br/>value = [8, 0]<br/>class = P>, fillcolor="#e58139ff"] ;
621 -> 622 ;
623 [label=<gillcolor &le; 11.5<br/>entropy = 0.811<br/>samples = 8<br/>value = [6, 2]<br/>class = P>, fillcolor="#e58139aa"] ;
621 -> 623 ;
624 [label=<gillcolor &le; 8.5<br/>entropy = 0.65<br/>samples = 6<br/>value = [5, 1]<br/>class = P>, fillcolor="#e58139cc"] ;
623 -> 624 ;
625 [label=<population &le; 9.0<br/>entropy = 0.918<br/>samples = 3<br/>value = [2, 1]<br/>class = P>, fillcolor="#e581397f"] ;
624 -> 625 ;
626 [label=<stalksurfacebelowring &le; 11.5<br/>entropy = 1.0<br/>samples = 2<br/>value = [1, 1]<br/>class = P>, fillcolor="#e5813900"] ;
625 -> 626 ;
627 [label=<entropy = 0.0<br/>samples = 1<br/>value = [0, 1]<br/>class = NP>, fillcolor="#399de5ff"] ;
626 -> 627 ;
628 [label=<entropy = 0.0<br/>samples = 1<br/>value = [1, 0]<br/>class = P>, fillcolor="#e58139ff"] ;
626 -> 628 ;
629 [label=<entropy = 0.0<br/>samples = 1<br/>value = [1, 0]<br/>class = P>, fillcolor="#e58139ff"] ;
625 -> 629 ;
630 [label=<entropy = 0.0<br/>samples = 3<br/>value = [3, 0]<br/>class = P>, fillcolor="#e58139ff"] ;
624 -> 630 ;
631 [label=<stalksurfacebelowring &le; 11.5<br/>entropy = 1.0<br/>samples = 2<br/>value = [1, 1]<br/>class = P>, fillcolor="#e5813900"] ;
623 -> 631 ;
632 [label=<entropy = 0.0<br/>samples = 1<br/>value = [1, 0]<br/>class = P>, fillcolor="#e58139ff"] ;
631 -> 632 ;
633 [label=<entropy = 0.0<br/>samples = 1<br/>value = [0, 1]<br/>class = NP>, fillcolor="#399de5ff"] ;
631 -> 633 ;
634 [label=<entropy = 0.0<br/>samples = 22<br/>value = [22, 0]<br/>class = P>, fillcolor="#e58139ff"] ;
620 -> 634 ;
635 [label=<sporeprintcolor &le; 11.5<br/>entropy = 0.579<br/>samples = 29<br/>value = [25, 4]<br/>class = P>, fillcolor="#e58139d6"] ;
553 -> 635 ;
636 [label=<capshape &le; 14.0<br/>entropy = 0.779<br/>samples = 13<br/>value = [10, 3]<br/>class = P>, fillcolor="#e58139b3"] ;
635 -> 636 ;
637 [label=<stalkcolorbelowring &le; 10.5<br/>entropy = 0.918<br/>samples = 9<br/>value = [6, 3]<br/>class = P>, fillcolor="#e581397f"] ;
636 -> 637 ;
638 [label=<capcolor &le; 5.0<br/>entropy = 1.0<br/>samples = 4<br/>value = [2, 2]<br/>class = P>, fillcolor="#e5813900"] ;
637 -> 638 ;
639 [label=<entropy = 0.0<br/>samples = 1<br/>value = [0, 1]<br/>class = NP>, fillcolor="#399de5ff"] ;
638 -> 639 ;
640 [label=<capcolor &le; 9.5<br/>entropy = 0.918<br/>samples = 3<br/>value = [2, 1]<br/>class = P>, fillcolor="#e581397f"] ;
638 -> 640 ;
641 [label=<stalkcolorabovering &le; 18.5<br/>entropy = 1.0<br/>samples = 2<br/>value = [1, 1]<br/>class = P>, fillcolor="#e5813900"] ;
640 -> 641 ;
642 [label=<entropy = 0.0<br/>samples = 1<br/>value = [1, 0]<br/>class = P>, fillcolor="#e58139ff"] ;
641 -> 642 ;
643 [label=<entropy = 0.0<br/>samples = 1<br/>value = [0, 1]<br/>class = NP>, fillcolor="#399de5ff"] ;
641 -> 643 ;
644 [label=<entropy = 0.0<br/>samples = 1<br/>value = [1, 0]<br/>class = P>, fillcolor="#e58139ff"] ;
640 -> 644 ;
645 [label=<capcolor &le; 9.5<br/>entropy = 0.722<br/>samples = 5<br/>value = [4, 1]<br/>class = P>, fillcolor="#e58139bf"] ;
637 -> 645 ;
646 [label=<entropy = 0.0<br/>samples = 3<br/>value = [3, 0]<br/>class = P>, fillcolor="#e58139ff"] ;
645 -> 646 ;
647 [label=<stalkcolorbelowring &le; 18.5<br/>entropy = 1.0<br/>samples = 2<br/>value = [1, 1]<br/>class = P>, fillcolor="#e5813900"] ;
645 -> 647 ;
648 [label=<entropy = 0.0<br/>samples = 1<br/>value = [1, 0]<br/>class = P>, fillcolor="#e58139ff"] ;
647 -> 648 ;
649 [label=<entropy = 0.0<br/>samples = 1<br/>value = [0, 1]<br/>class = NP>, fillcolor="#399de5ff"] ;
647 -> 649 ;
650 [label=<entropy = 0.0<br/>samples = 4<br/>value = [4, 0]<br/>class = P>, fillcolor="#e58139ff"] ;
636 -> 650 ;
651 [label=<stalkcolorbelowring &le; 10.5<br/>entropy = 0.337<br/>samples = 16<br/>value = [15, 1]<br/>class = P>, fillcolor="#e58139ee"] ;
635 -> 651 ;
652 [label=<capshape &le; 14.0<br/>entropy = 0.544<br/>samples = 8<br/>value = [7, 1]<br/>class = P>, fillcolor="#e58139db"] ;
651 -> 652 ;
653 [label=<entropy = 0.0<br/>samples = 5<br/>value = [5, 0]<br/>class = P>, fillcolor="#e58139ff"] ;
652 -> 653 ;
654 [label=<stalkcolorabovering &le; 18.5<br/>entropy = 0.918<br/>samples = 3<br/>value = [2, 1]<br/>class = P>, fillcolor="#e581397f"] ;
652 -> 654 ;
655 [label=<capcolor &le; 9.5<br/>entropy = 1.0<br/>samples = 2<br/>value = [1, 1]<br/>class = P>, fillcolor="#e5813900"] ;
654 -> 655 ;
656 [label=<entropy = 0.0<br/>samples = 1<br/>value = [0, 1]<br/>class = NP>, fillcolor="#399de5ff"] ;
655 -> 656 ;
657 [label=<entropy = 0.0<br/>samples = 1<br/>value = [1, 0]<br/>class = P>, fillcolor="#e58139ff"] ;
655 -> 657 ;
658 [label=<entropy = 0.0<br/>samples = 1<br/>value = [1, 0]<br/>class = P>, fillcolor="#e58139ff"] ;
654 -> 658 ;
659 [label=<entropy = 0.0<br/>samples = 8<br/>value = [8, 0]<br/>class = P>, fillcolor="#e58139ff"] ;
651 -> 659 ;
660 [label=<entropy = 0.0<br/>samples = 35<br/>value = [35, 0]<br/>class = P>, fillcolor="#e58139ff"] ;
530 -> 660 ;
661 [label=<capcolor &le; 9.5<br/>entropy = 0.515<br/>samples = 191<br/>value = [169, 22]<br/>class = P>, fillcolor="#e58139de"] ;
529 -> 661 ;
662 [label=<gillcolor &le; 17.5<br/>entropy = 0.565<br/>samples = 128<br/>value = [111, 17]<br/>class = P>, fillcolor="#e58139d8"] ;
661 -> 662 ;
663 [label=<stalkcolorbelowring &le; 10.5<br/>entropy = 0.498<br/>samples = 64<br/>value = [57, 7]<br/>class = P>, fillcolor="#e58139e0"] ;
662 -> 663 ;
664 [label=<capcolor &le; 5.0<br/>entropy = 0.629<br/>samples = 19<br/>value = [16, 3]<br/>class = P>, fillcolor="#e58139cf"] ;
663 -> 664 ;
665 [label=<stalkcolorabovering &le; 18.5<br/>entropy = 0.811<br/>samples = 8<br/>value = [6, 2]<br/>class = P>, fillcolor="#e58139aa"] ;
664 -> 665 ;
666 [label=<sporeprintcolor &le; 11.5<br/>entropy = 0.918<br/>samples = 6<br/>value = [4, 2]<br/>class = P>, fillcolor="#e581397f"] ;
665 -> 666 ;
667 [label=<stalkcolorabovering &le; 10.5<br/>entropy = 0.811<br/>samples = 4<br/>value = [3, 1]<br/>class = P>, fillcolor="#e58139aa"] ;
666 -> 667 ;
668 [label=<entropy = 0.0<br/>samples = 2<br/>value = [2, 0]<br/>class = P>, fillcolor="#e58139ff"] ;
667 -> 668 ;
669 [label=<gillcolor &le; 14.0<br/>entropy = 1.0<br/>samples = 2<br/>value = [1, 1]<br/>class = P>, fillcolor="#e5813900"] ;
667 -> 669 ;
670 [label=<entropy = 0.0<br/>samples = 1<br/>value = [1, 0]<br/>class = P>, fillcolor="#e58139ff"] ;
669 -> 670 ;
671 [label=<entropy = 0.0<br/>samples = 1<br/>value = [0, 1]<br/>class = NP>, fillcolor="#399de5ff"] ;
669 -> 671 ;
672 [label=<capshape &le; 14.0<br/>entropy = 1.0<br/>samples = 2<br/>value = [1, 1]<br/>class = P>, fillcolor="#e5813900"] ;
666 -> 672 ;
673 [label=<entropy = 0.0<br/>samples = 1<br/>value = [1, 0]<br/>class = P>, fillcolor="#e58139ff"] ;
672 -> 673 ;
674 [label=<entropy = 0.0<br/>samples = 1<br/>value = [0, 1]<br/>class = NP>, fillcolor="#399de5ff"] ;
672 -> 674 ;
675 [label=<entropy = 0.0<br/>samples = 2<br/>value = [2, 0]<br/>class = P>, fillcolor="#e58139ff"] ;
665 -> 675 ;
676 [label=<stalkcolorabovering &le; 18.5<br/>entropy = 0.439<br/>samples = 11<br/>value = [10, 1]<br/>class = P>, fillcolor="#e58139e6"] ;
664 -> 676 ;
677 [label=<entropy = 0.0<br/>samples = 7<br/>value = [7, 0]<br/>class = P>, fillcolor="#e58139ff"] ;
676 -> 677 ;
678 [label=<sporeprintcolor &le; 11.5<br/>entropy = 0.811<br/>samples = 4<br/>value = [3, 1]<br/>class = P>, fillcolor="#e58139aa"] ;
676 -> 678 ;
679 [label=<entropy = 0.0<br/>samples = 3<br/>value = [3, 0]<br/>class = P>, fillcolor="#e58139ff"] ;
678 -> 679 ;
680 [label=<entropy = 0.0<br/>samples = 1<br/>value = [0, 1]<br/>class = NP>, fillcolor="#399de5ff"] ;
678 -> 680 ;
681 [label=<capshape &le; 14.0<br/>entropy = 0.433<br/>samples = 45<br/>value = [41, 4]<br/>class = P>, fillcolor="#e58139e6"] ;
663 -> 681 ;
682 [label=<gillcolor &le; 14.0<br/>entropy = 0.579<br/>samples = 29<br/>value = [25, 4]<br/>class = P>, fillcolor="#e58139d6"] ;
681 -> 682 ;
683 [label=<stalkcolorbelowring &le; 18.5<br/>entropy = 0.469<br/>samples = 10<br/>value = [9, 1]<br/>class = P>, fillcolor="#e58139e3"] ;
682 -> 683 ;
684 [label=<stalkcolorabovering &le; 10.5<br/>entropy = 0.811<br/>samples = 4<br/>value = [3, 1]<br/>class = P>, fillcolor="#e58139aa"] ;
683 -> 684 ;
685 [label=<sporeprintcolor &le; 11.5<br/>entropy = 1.0<br/>samples = 2<br/>value = [1, 1]<br/>class = P>, fillcolor="#e5813900"] ;
684 -> 685 ;
686 [label=<entropy = 0.0<br/>samples = 1<br/>value = [1, 0]<br/>class = P>, fillcolor="#e58139ff"] ;
685 -> 686 ;
687 [label=<entropy = 0.0<br/>samples = 1<br/>value = [0, 1]<br/>class = NP>, fillcolor="#399de5ff"] ;
685 -> 687 ;
688 [label=<entropy = 0.0<br/>samples = 2<br/>value = [2, 0]<br/>class = P>, fillcolor="#e58139ff"] ;
684 -> 688 ;
689 [label=<entropy = 0.0<br/>samples = 6<br/>value = [6, 0]<br/>class = P>, fillcolor="#e58139ff"] ;
683 -> 689 ;
690 [label=<stalkcolorabovering &le; 10.5<br/>entropy = 0.629<br/>samples = 19<br/>value = [16, 3]<br/>class = P>, fillcolor="#e58139cf"] ;
682 -> 690 ;
691 [label=<entropy = 0.0<br/>samples = 6<br/>value = [6, 0]<br/>class = P>, fillcolor="#e58139ff"] ;
690 -> 691 ;
692 [label=<sporeprintcolor &le; 11.5<br/>entropy = 0.779<br/>samples = 13<br/>value = [10, 3]<br/>class = P>, fillcolor="#e58139b3"] ;
690 -> 692 ;
693 [label=<stalkcolorbelowring &le; 18.5<br/>entropy = 0.918<br/>samples = 6<br/>value = [4, 2]<br/>class = P>, fillcolor="#e581397f"] ;
692 -> 693 ;
694 [label=<entropy = 0.0<br/>samples = 3<br/>value = [3, 0]<br/>class = P>, fillcolor="#e58139ff"] ;
693 -> 694 ;
695 [label=<capcolor &le; 5.0<br/>entropy = 0.918<br/>samples = 3<br/>value = [1, 2]<br/>class = NP>, fillcolor="#399de57f"] ;
693 -> 695 ;
696 [label=<entropy = 0.0<br/>samples = 2<br/>value = [0, 2]<br/>class = NP>, fillcolor="#399de5ff"] ;
695 -> 696 ;
697 [label=<entropy = 0.0<br/>samples = 1<br/>value = [1, 0]<br/>class = P>, fillcolor="#e58139ff"] ;
695 -> 697 ;
698 [label=<capcolor &le; 5.0<br/>entropy = 0.592<br/>samples = 7<br/>value = [6, 1]<br/>class = P>, fillcolor="#e58139d4"] ;
692 -> 698 ;
699 [label=<entropy = 0.0<br/>samples = 4<br/>value = [4, 0]<br/>class = P>, fillcolor="#e58139ff"] ;
698 -> 699 ;
700 [label=<stalkcolorbelowring &le; 18.5<br/>entropy = 0.918<br/>samples = 3<br/>value = [2, 1]<br/>class = P>, fillcolor="#e581397f"] ;
698 -> 700 ;
701 [label=<entropy = 0.0<br/>samples = 1<br/>value = [0, 1]<br/>class = NP>, fillcolor="#399de5ff"] ;
700 -> 701 ;
702 [label=<entropy = 0.0<br/>samples = 2<br/>value = [2, 0]<br/>class = P>, fillcolor="#e58139ff"] ;
700 -> 702 ;
703 [label=<entropy = 0.0<br/>samples = 16<br/>value = [16, 0]<br/>class = P>, fillcolor="#e58139ff"] ;
681 -> 703 ;
704 [label=<stalkcolorbelowring &le; 10.5<br/>entropy = 0.625<br/>samples = 64<br/>value = [54, 10]<br/>class = P>, fillcolor="#e58139d0"] ;
662 -> 704 ;
705 [label=<capcolor &le; 5.0<br/>entropy = 0.439<br/>samples = 22<br/>value = [20, 2]<br/>class = P>, fillcolor="#e58139e6"] ;
704 -> 705 ;
706 [label=<entropy = 0.0<br/>samples = 11<br/>value = [11, 0]<br/>class = P>, fillcolor="#e58139ff"] ;
705 -> 706 ;
707 [label=<capshape &le; 14.0<br/>entropy = 0.684<br/>samples = 11<br/>value = [9, 2]<br/>class = P>, fillcolor="#e58139c6"] ;
705 -> 707 ;
708 [label=<entropy = 0.0<br/>samples = 5<br/>value = [5, 0]<br/>class = P>, fillcolor="#e58139ff"] ;
707 -> 708 ;
709 [label=<stalkcolorabovering &le; 10.5<br/>entropy = 0.918<br/>samples = 6<br/>value = [4, 2]<br/>class = P>, fillcolor="#e581397f"] ;
707 -> 709 ;
710 [label=<entropy = 0.0<br/>samples = 1<br/>value = [1, 0]<br/>class = P>, fillcolor="#e58139ff"] ;
709 -> 710 ;
711 [label=<stalkcolorabovering &le; 18.5<br/>entropy = 0.971<br/>samples = 5<br/>value = [3, 2]<br/>class = P>, fillcolor="#e5813955"] ;
709 -> 711 ;
712 [label=<sporeprintcolor &le; 11.5<br/>entropy = 1.0<br/>samples = 4<br/>value = [2, 2]<br/>class = P>, fillcolor="#e5813900"] ;
711 -> 712 ;
713 [label=<gillcolor &le; 21.0<br/>entropy = 1.0<br/>samples = 2<br/>value = [1, 1]<br/>class = P>, fillcolor="#e5813900"] ;
712 -> 713 ;
714 [label=<entropy = 0.0<br/>samples = 1<br/>value = [1, 0]<br/>class = P>, fillcolor="#e58139ff"] ;
713 -> 714 ;
715 [label=<entropy = 0.0<br/>samples = 1<br/>value = [0, 1]<br/>class = NP>, fillcolor="#399de5ff"] ;
713 -> 715 ;
716 [label=<gillcolor &le; 21.0<br/>entropy = 1.0<br/>samples = 2<br/>value = [1, 1]<br/>class = P>, fillcolor="#e5813900"] ;
712 -> 716 ;
717 [label=<entropy = 0.0<br/>samples = 1<br/>value = [0, 1]<br/>class = NP>, fillcolor="#399de5ff"] ;
716 -> 717 ;
718 [label=<entropy = 0.0<br/>samples = 1<br/>value = [1, 0]<br/>class = P>, fillcolor="#e58139ff"] ;
716 -> 718 ;
719 [label=<entropy = 0.0<br/>samples = 1<br/>value = [1, 0]<br/>class = P>, fillcolor="#e58139ff"] ;
711 -> 719 ;
720 [label=<stalkcolorabovering &le; 18.5<br/>entropy = 0.702<br/>samples = 42<br/>value = [34, 8]<br/>class = P>, fillcolor="#e58139c3"] ;
704 -> 720 ;
721 [label=<sporeprintcolor &le; 11.5<br/>entropy = 0.634<br/>samples = 25<br/>value = [21, 4]<br/>class = P>, fillcolor="#e58139ce"] ;
720 -> 721 ;
722 [label=<stalkcolorbelowring &le; 18.5<br/>entropy = 0.469<br/>samples = 10<br/>value = [9, 1]<br/>class = P>, fillcolor="#e58139e3"] ;
721 -> 722 ;
723 [label=<entropy = 0.0<br/>samples = 6<br/>value = [6, 0]<br/>class = P>, fillcolor="#e58139ff"] ;
722 -> 723 ;
724 [label=<gillcolor &le; 21.0<br/>entropy = 0.811<br/>samples = 4<br/>value = [3, 1]<br/>class = P>, fillcolor="#e58139aa"] ;
722 -> 724 ;
725 [label=<entropy = 0.0<br/>samples = 1<br/>value = [0, 1]<br/>class = NP>, fillcolor="#399de5ff"] ;
724 -> 725 ;
726 [label=<entropy = 0.0<br/>samples = 3<br/>value = [3, 0]<br/>class = P>, fillcolor="#e58139ff"] ;
724 -> 726 ;
727 [label=<stalkcolorbelowring &le; 18.5<br/>entropy = 0.722<br/>samples = 15<br/>value = [12, 3]<br/>class = P>, fillcolor="#e58139bf"] ;
721 -> 727 ;
728 [label=<stalkcolorabovering &le; 10.5<br/>entropy = 0.881<br/>samples = 10<br/>value = [7, 3]<br/>class = P>, fillcolor="#e5813992"] ;
727 -> 728 ;
729 [label=<capshape &le; 14.0<br/>entropy = 0.65<br/>samples = 6<br/>value = [5, 1]<br/>class = P>, fillcolor="#e58139cc"] ;
728 -> 729 ;
730 [label=<entropy = 0.0<br/>samples = 3<br/>value = [3, 0]<br/>class = P>, fillcolor="#e58139ff"] ;
729 -> 730 ;
731 [label=<gillcolor &le; 21.0<br/>entropy = 0.918<br/>samples = 3<br/>value = [2, 1]<br/>class = P>, fillcolor="#e581397f"] ;
729 -> 731 ;
732 [label=<capcolor &le; 5.0<br/>entropy = 1.0<br/>samples = 2<br/>value = [1, 1]<br/>class = P>, fillcolor="#e5813900"] ;
731 -> 732 ;
733 [label=<entropy = 0.0<br/>samples = 1<br/>value = [1, 0]<br/>class = P>, fillcolor="#e58139ff"] ;
732 -> 733 ;
734 [label=<entropy = 0.0<br/>samples = 1<br/>value = [0, 1]<br/>class = NP>, fillcolor="#399de5ff"] ;
732 -> 734 ;
735 [label=<entropy = 0.0<br/>samples = 1<br/>value = [1, 0]<br/>class = P>, fillcolor="#e58139ff"] ;
731 -> 735 ;
736 [label=<capcolor &le; 5.0<br/>entropy = 1.0<br/>samples = 4<br/>value = [2, 2]<br/>class = P>, fillcolor="#e5813900"] ;
728 -> 736 ;
737 [label=<entropy = 0.0<br/>samples = 2<br/>value = [0, 2]<br/>class = NP>, fillcolor="#399de5ff"] ;
736 -> 737 ;
738 [label=<entropy = 0.0<br/>samples = 2<br/>value = [2, 0]<br/>class = P>, fillcolor="#e58139ff"] ;
736 -> 738 ;
739 [label=<entropy = 0.0<br/>samples = 5<br/>value = [5, 0]<br/>class = P>, fillcolor="#e58139ff"] ;
727 -> 739 ;
740 [label=<sporeprintcolor &le; 11.5<br/>entropy = 0.787<br/>samples = 17<br/>value = [13, 4]<br/>class = P>, fillcolor="#e58139b1"] ;
720 -> 740 ;
741 [label=<stalkcolorbelowring &le; 18.5<br/>entropy = 0.918<br/>samples = 6<br/>value = [4, 2]<br/>class = P>, fillcolor="#e581397f"] ;
740 -> 741 ;
742 [label=<entropy = 0.0<br/>samples = 3<br/>value = [3, 0]<br/>class = P>, fillcolor="#e58139ff"] ;
741 -> 742 ;
743 [label=<capcolor &le; 5.0<br/>entropy = 0.918<br/>samples = 3<br/>value = [1, 2]<br/>class = NP>, fillcolor="#399de57f"] ;
741 -> 743 ;
744 [label=<entropy = 0.0<br/>samples = 2<br/>value = [0, 2]<br/>class = NP>, fillcolor="#399de5ff"] ;
743 -> 744 ;
745 [label=<entropy = 0.0<br/>samples = 1<br/>value = [1, 0]<br/>class = P>, fillcolor="#e58139ff"] ;
743 -> 745 ;
746 [label=<stalkcolorbelowring &le; 18.5<br/>entropy = 0.684<br/>samples = 11<br/>value = [9, 2]<br/>class = P>, fillcolor="#e58139c6"] ;
740 -> 746 ;
747 [label=<capcolor &le; 5.0<br/>entropy = 0.863<br/>samples = 7<br/>value = [5, 2]<br/>class = P>, fillcolor="#e5813999"] ;
746 -> 747 ;
748 [label=<entropy = 0.0<br/>samples = 3<br/>value = [3, 0]<br/>class = P>, fillcolor="#e58139ff"] ;
747 -> 748 ;
749 [label=<gillcolor &le; 21.0<br/>entropy = 1.0<br/>samples = 4<br/>value = [2, 2]<br/>class = P>, fillcolor="#e5813900"] ;
747 -> 749 ;
750 [label=<capshape &le; 14.0<br/>entropy = 1.0<br/>samples = 2<br/>value = [1, 1]<br/>class = P>, fillcolor="#e5813900"] ;
749 -> 750 ;
751 [label=<entropy = 0.0<br/>samples = 1<br/>value = [0, 1]<br/>class = NP>, fillcolor="#399de5ff"] ;
750 -> 751 ;
752 [label=<entropy = 0.0<br/>samples = 1<br/>value = [1, 0]<br/>class = P>, fillcolor="#e58139ff"] ;
750 -> 752 ;
753 [label=<capshape &le; 14.0<br/>entropy = 1.0<br/>samples = 2<br/>value = [1, 1]<br/>class = P>, fillcolor="#e5813900"] ;
749 -> 753 ;
754 [label=<entropy = 0.0<br/>samples = 1<br/>value = [1, 0]<br/>class = P>, fillcolor="#e58139ff"] ;
753 -> 754 ;
755 [label=<entropy = 0.0<br/>samples = 1<br/>value = [0, 1]<br/>class = NP>, fillcolor="#399de5ff"] ;
753 -> 755 ;
756 [label=<entropy = 0.0<br/>samples = 4<br/>value = [4, 0]<br/>class = P>, fillcolor="#e58139ff"] ;
746 -> 756 ;
757 [label=<stalkcolorbelowring &le; 10.5<br/>entropy = 0.4<br/>samples = 63<br/>value = [58, 5]<br/>class = P>, fillcolor="#e58139e9"] ;
661 -> 757 ;
758 [label=<capshape &le; 14.0<br/>entropy = 0.684<br/>samples = 22<br/>value = [18, 4]<br/>class = P>, fillcolor="#e58139c6"] ;
757 -> 758 ;
759 [label=<gillcolor &le; 21.0<br/>entropy = 0.811<br/>samples = 12<br/>value = [9, 3]<br/>class = P>, fillcolor="#e58139aa"] ;
758 -> 759 ;
760 [label=<stalkcolorabovering &le; 10.5<br/>entropy = 0.592<br/>samples = 7<br/>value = [6, 1]<br/>class = P>, fillcolor="#e58139d4"] ;
759 -> 760 ;
761 [label=<entropy = 0.0<br/>samples = 4<br/>value = [4, 0]<br/>class = P>, fillcolor="#e58139ff"] ;
760 -> 761 ;
762 [label=<sporeprintcolor &le; 11.5<br/>entropy = 0.918<br/>samples = 3<br/>value = [2, 1]<br/>class = P>, fillcolor="#e581397f"] ;
760 -> 762 ;
763 [label=<entropy = 0.0<br/>samples = 1<br/>value = [1, 0]<br/>class = P>, fillcolor="#e58139ff"] ;
762 -> 763 ;
764 [label=<stalkcolorabovering &le; 18.5<br/>entropy = 1.0<br/>samples = 2<br/>value = [1, 1]<br/>class = P>, fillcolor="#e5813900"] ;
762 -> 764 ;
765 [label=<entropy = 0.0<br/>samples = 1<br/>value = [0, 1]<br/>class = NP>, fillcolor="#399de5ff"] ;
764 -> 765 ;
766 [label=<entropy = 0.0<br/>samples = 1<br/>value = [1, 0]<br/>class = P>, fillcolor="#e58139ff"] ;
764 -> 766 ;
767 [label=<stalkcolorabovering &le; 18.5<br/>entropy = 0.971<br/>samples = 5<br/>value = [3, 2]<br/>class = P>, fillcolor="#e5813955"] ;
759 -> 767 ;
768 [label=<stalkcolorabovering &le; 10.5<br/>entropy = 0.811<br/>samples = 4<br/>value = [3, 1]<br/>class = P>, fillcolor="#e58139aa"] ;
767 -> 768 ;
769 [label=<sporeprintcolor &le; 11.5<br/>entropy = 1.0<br/>samples = 2<br/>value = [1, 1]<br/>class = P>, fillcolor="#e5813900"] ;
768 -> 769 ;
770 [label=<entropy = 0.0<br/>samples = 1<br/>value = [0, 1]<br/>class = NP>, fillcolor="#399de5ff"] ;
